{
  "layer_0": {
    "weight": [
      [
        -0.13802355527877808,
        -0.40131306648254395,
        0.2513009309768677,
        0.20176751911640167,
        0.11375556886196136,
        -0.01533818431198597,
        0.07926282286643982,
        0.24204225838184357,
        -0.1849825233221054,
        0.28636983036994934,
        0.4433927834033966,
        0.0822703018784523,
        0.15007564425468445,
        0.2812850773334503,
        0.17904330790042877,
        0.04858298972249031,
        0.18519167602062225
      ],
      [
        -0.2763858139514923,
        -0.15753480792045593,
        0.23298253118991852,
        0.12780843675136566,
        -0.02408832497894764,
        0.2941177487373352,
        -0.006537379696965218,
        0.20695611834526062,
        0.5356084108352661,
        0.4065731465816498,
        -0.01442865189164877,
        0.10839134454727173,
        0.4927269220352173,
        0.08442063629627228,
        -0.28834667801856995,
        -0.22337107360363007,
        0.13346490263938904
      ],
      [
        -0.18402762711048126,
        -0.683458149433136,
        -0.08953098207712173,
        0.19805854558944702,
        -0.2268175482749939,
        0.35175666213035583,
        0.045742109417915344,
        0.3784293234348297,
        0.031204409897327423,
        0.2803451120853424,
        0.3332124948501587,
        0.06704671680927277,
        -0.33392858505249023,
        0.05995675176382065,
        0.30687302350997925,
        -0.0878760814666748,
        0.07446753978729248
      ],
      [
        0.06587997823953629,
        0.45423445105552673,
        -0.22347262501716614,
        -0.08702564984560013,
        -0.017251119017601013,
        -0.02662419155240059,
        -0.22840480506420135,
        -0.11469285190105438,
        -0.2793746292591095,
        -0.2799278199672699,
        -0.30970683693885803,
        -0.17712360620498657,
        0.08803579211235046,
        -0.06684859097003937,
        -0.419359415769577,
        -0.06585965305566788,
        0.00014845142140984535
      ],
      [
        0.1722514033317566,
        -0.09112326800823212,
        -0.04461861774325371,
        -0.16451793909072876,
        -0.1724580079317093,
        0.3786216378211975,
        0.011576314456760883,
        -0.3424639403820038,
        -0.26739931106567383,
        -0.012863725423812866,
        -0.18739986419677734,
        0.2564649283885956,
        0.32646802067756653,
        -0.3152816891670227,
        0.03601977229118347,
        0.2356453835964203,
        -0.09195460379123688
      ],
      [
        -0.05025869980454445,
        0.3172942101955414,
        -0.06668649613857269,
        -0.2091883420944214,
        -0.1941424012184143,
        0.3271896243095398,
        0.3121541142463684,
        0.2612294554710388,
        -0.1576637476682663,
        -0.14046747982501984,
        0.1858714073896408,
        0.01520664431154728,
        -0.03780243545770645,
        -0.12046874314546585,
        -0.2486046850681305,
        -0.14809948205947876,
        0.2939963638782501
      ],
      [
        -0.11213193088769913,
        -0.7877058982849121,
        -0.15775080025196075,
        -0.18987976014614105,
        -0.2551116943359375,
        -0.027180062606930733,
        -0.012595254927873611,
        0.13084939122200012,
        -0.01432684063911438,
        -0.04817694425582886,
        -0.0697045624256134,
        0.07907881587743759,
        -0.06169011816382408,
        -0.04005301371216774,
        -0.15285304188728333,
        -0.06250479072332382,
        0.01288789976388216
      ],
      [
        -0.07100751250982285,
        0.01950455829501152,
        0.09324505925178528,
        -0.013486837968230247,
        -0.2792275846004486,
        0.6235184669494629,
        0.2148837000131607,
        -0.5274109244346619,
        -0.08905547112226486,
        0.12346252053976059,
        -0.07116816937923431,
        0.20636020600795746,
        0.5393089652061462,
        -0.3602779805660248,
        -0.4538186192512512,
        0.26935845613479614,
        0.03544095531105995
      ],
      [
        0.05894051492214203,
        -0.42286401987075806,
        0.17085035145282745,
        0.011753878556191921,
        0.020191509276628494,
        -0.270541250705719,
        -0.4326562285423279,
        -0.19137956202030182,
        0.07183908671140671,
        -0.17333295941352844,
        0.08592420071363449,
        0.0746447741985321,
        0.027054736390709877,
        0.1258411556482315,
        -0.024464871734380722,
        0.03304215520620346,
        0.08482952415943146
      ],
      [
        0.23701637983322144,
        -0.6110267639160156,
        0.14523912966251373,
        0.14077885448932648,
        0.025773389264941216,
        -0.4495493173599243,
        -0.09257436543703079,
        0.2767564058303833,
        0.26034796237945557,
        -0.3162645399570465,
        0.09273279458284378,
        0.2220318764448166,
        0.24828468263149261,
        0.06604933738708496,
        -0.1274283230304718,
        -0.06723709404468536,
        -0.07923132926225662
      ],
      [
        0.05075251683592796,
        -0.07063908129930496,
        -0.13121135532855988,
        -0.5903156995773315,
        0.16023486852645874,
        0.18784423172473907,
        -0.07600624859333038,
        -0.11970430612564087,
        -0.4773341715335846,
        -0.246528759598732,
        0.1877540796995163,
        -0.29216986894607544,
        -0.05106770992279053,
        -0.018015369772911072,
        -0.11072521656751633,
        0.2555481493473053,
        -0.22934351861476898
      ],
      [
        0.02749677747488022,
        0.09736937284469604,
        -0.11228185147047043,
        0.07820413261651993,
        -0.2163487672805786,
        0.5355015397071838,
        -0.09453803300857544,
        -0.47869977355003357,
        0.4260653853416443,
        0.548129677772522,
        -0.41913679242134094,
        -0.2836278975009918,
        0.47480708360671997,
        -0.12046919763088226,
        -0.38080084323883057,
        0.2568069100379944,
        -0.08098399639129639
      ],
      [
        -0.1202879473567009,
        -0.5901506543159485,
        0.06658662855625153,
        0.06878284364938736,
        -0.05403310805559158,
        0.2727520167827606,
        0.13120317459106445,
        0.14023450016975403,
        0.014322423376142979,
        0.003321825060993433,
        -0.22527554631233215,
        -0.13343445956707,
        -0.1375037282705307,
        -0.020862242206931114,
        -0.3608764410018921,
        -0.11691933870315552,
        0.37685543298721313
      ],
      [
        0.004582475405186415,
        0.09160638600587845,
        -0.11478470265865326,
        0.0469946563243866,
        -0.28156933188438416,
        0.5360478758811951,
        0.31658557057380676,
        -0.5003376603126526,
        -0.24113671481609344,
        0.0861235037446022,
        0.02058340795338154,
        0.18948577344417572,
        0.37022560834884644,
        -0.23608903586864471,
        -0.28538545966148376,
        0.25100237131118774,
        0.12750738859176636
      ],
      [
        -0.14499534666538239,
        0.011132434941828251,
        0.1427869349718094,
        -0.03805813193321228,
        -0.21942821145057678,
        0.6186644434928894,
        0.18070298433303833,
        -0.6970654129981995,
        0.14299112558364868,
        0.11873610317707062,
        -0.22398720681667328,
        -0.016425717622041702,
        0.6909209489822388,
        -0.23308144509792328,
        -0.37714576721191406,
        0.09295753389596939,
        -0.03485621511936188
      ],
      [
        0.13451902568340302,
        0.36884990334510803,
        -0.10001521557569504,
        0.019717736169695854,
        0.0003280409437138587,
        0.018187331035733223,
        0.02265239879488945,
        -0.04337827116250992,
        0.22304095327854156,
        0.3210028409957886,
        -0.31166601181030273,
        0.005948135629296303,
        0.322723925113678,
        -0.142008438706398,
        -0.27192798256874084,
        -0.087154820561409,
        0.22733962535858154
      ],
      [
        0.21420374512672424,
        0.4739467203617096,
        -0.12480570375919342,
        -0.028140801936388016,
        0.03279993683099747,
        -0.1355804204940796,
        -0.21375025808811188,
        0.05879509821534157,
        0.13749589025974274,
        -0.08570847660303116,
        -0.07690045982599258,
        0.08216986805200577,
        -0.17421218752861023,
        -0.19405879080295563,
        -0.19088982045650482,
        0.05776800960302353,
        0.07583233714103699
      ],
      [
        0.06368575990200043,
        0.07447251677513123,
        0.05409078672528267,
        0.23243869841098785,
        -0.2615160644054413,
        -0.07805398851633072,
        -0.08464141935110092,
        0.1302005499601364,
        -0.07248521596193314,
        -0.034395162016153336,
        -0.17974919080734253,
        -0.250163733959198,
        -0.1463715136051178,
        -0.08796302229166031,
        -0.24168618023395538,
        -0.14023242890834808,
        -0.15210306644439697
      ],
      [
        0.14303366839885712,
        0.01900414377450943,
        -0.1322915256023407,
        -0.03424064815044403,
        -0.07983130216598511,
        0.2532610297203064,
        0.2447754293680191,
        0.3724255859851837,
        -0.5753256678581238,
        -0.10065212100744247,
        0.2494371235370636,
        0.3925972580909729,
        -0.519298791885376,
        -0.17327344417572021,
        0.35641855001449585,
        0.06603187322616577,
        0.005520874634385109
      ],
      [
        0.297757089138031,
        -0.2605542838573456,
        -0.022450795397162437,
        0.06019740179181099,
        0.0255204439163208,
        -0.3418075740337372,
        0.24074918031692505,
        0.44139933586120605,
        -0.2927304208278656,
        -0.4002734124660492,
        0.5544256567955017,
        0.09404433518648148,
        -0.646695077419281,
        0.018615948036313057,
        0.2320464700460434,
        0.06778132915496826,
        -0.09602969139814377
      ],
      [
        0.25076329708099365,
        -0.05714748427271843,
        -0.044059913605451584,
        0.36238011717796326,
        0.11330662667751312,
        -0.21878406405448914,
        0.1967983990907669,
        0.22223934531211853,
        -0.06544291228055954,
        0.1722656935453415,
        0.2561536133289337,
        0.02635812759399414,
        -0.11058184504508972,
        0.3303462266921997,
        0.1141146719455719,
        -0.2088930308818817,
        0.03742918372154236
      ],
      [
        0.3407679796218872,
        0.5743207931518555,
        -0.16274189949035645,
        0.24367991089820862,
        0.1015629768371582,
        -0.4965328872203827,
        -0.28527477383613586,
        0.14674806594848633,
        0.29832571744918823,
        -0.0753597766160965,
        -0.03320141136646271,
        0.051978711038827896,
        -0.10137183219194412,
        0.3170645534992218,
        0.3358781039714813,
        0.013444839045405388,
        -0.052413973957300186
      ],
      [
        -0.012752171605825424,
        0.5913581848144531,
        -0.30423063039779663,
        0.14955702424049377,
        0.16424942016601562,
        0.13610081374645233,
        -0.07355151325464249,
        -0.01737288013100624,
        0.26544952392578125,
        -0.07728083431720734,
        0.019099406898021698,
        0.1905796080827713,
        -0.17740754783153534,
        0.23613595962524414,
        0.29239898920059204,
        0.2117081731557846,
        0.04582365229725838
      ],
      [
        0.025286341086030006,
        -0.21827083826065063,
        -0.025888284668326378,
        -0.23741230368614197,
        -0.06501977890729904,
        -0.04209621250629425,
        0.32181185483932495,
        0.028328903019428253,
        -0.21594932675361633,
        -0.20983406901359558,
        0.4076221287250519,
        0.26578107476234436,
        0.06700610369443893,
        0.03693405166268349,
        -0.020829446613788605,
        0.25051790475845337,
        0.09681382030248642
      ],
      [
        0.09016720950603485,
        0.2430637925863266,
        0.1983111947774887,
        -0.10037759691476822,
        -0.1194491907954216,
        -0.1566024273633957,
        0.30248260498046875,
        -0.24456097185611725,
        -0.20802058279514313,
        -0.0245920792222023,
        0.4425654411315918,
        0.01262945681810379,
        -0.20454366505146027,
        -0.19547219574451447,
        -0.06754555553197861,
        -0.016638731583952904,
        0.2656594216823578
      ],
      [
        -0.001124401343986392,
        -0.14337117969989777,
        0.1214616671204567,
        -0.45011335611343384,
        -0.5458097457885742,
        -0.23533499240875244,
        -0.4567417502403259,
        -0.2400263398885727,
        -0.0702570453286171,
        -0.021992702037096024,
        -0.29267337918281555,
        -0.10498158633708954,
        0.23918785154819489,
        0.26114025712013245,
        0.12367714941501617,
        0.08098345994949341,
        0.06769142299890518
      ],
      [
        0.1059940904378891,
        -0.11791881173849106,
        0.017027540132403374,
        -0.5042096376419067,
        -0.16259515285491943,
        -0.1644889861345291,
        0.3720736503601074,
        -0.17795537412166595,
        -0.5632919669151306,
        -0.24150598049163818,
        0.22229009866714478,
        0.3290100693702698,
        -0.2297593057155609,
        0.12632536888122559,
        0.15069398283958435,
        0.09942596405744553,
        -0.0351017564535141
      ],
      [
        0.1101013645529747,
        0.004717202391475439,
        0.024203075096011162,
        0.49473273754119873,
        -0.215865358710289,
        -0.23680001497268677,
        -0.08696891367435455,
        0.16336621344089508,
        0.41765275597572327,
        0.3310674726963043,
        0.08474208414554596,
        0.29315683245658875,
        0.19971755146980286,
        -0.026948684826493263,
        -0.12961815297603607,
        -0.2646011710166931,
        0.22367532551288605
      ],
      [
        -0.08624588698148727,
        0.013982574455440044,
        -0.09606418758630753,
        -0.19061711430549622,
        0.11195250600576401,
        0.360636442899704,
        0.587022602558136,
        -0.05335881561040878,
        -0.11700601875782013,
        0.4489454925060272,
        0.40632832050323486,
        0.42236003279685974,
        0.07384324073791504,
        -0.05564945936203003,
        0.04472765326499939,
        -0.0006409326451830566,
        0.16435404121875763
      ],
      [
        0.12407033145427704,
        -0.0845932587981224,
        -0.00019575637998059392,
        0.10699854791164398,
        0.23314452171325684,
        0.18980801105499268,
        0.30171456933021545,
        0.24276690185070038,
        0.12829537689685822,
        0.06383217126131058,
        0.4041171967983246,
        0.27857542037963867,
        -0.1891079843044281,
        -0.23249772191047668,
        -0.2582300901412964,
        -0.4031994342803955,
        0.1833050400018692
      ],
      [
        0.13982711732387543,
        -0.20446735620498657,
        0.07055456936359406,
        0.27551090717315674,
        -0.14531517028808594,
        -0.012183926068246365,
        -0.23289167881011963,
        0.48239147663116455,
        0.19408226013183594,
        -0.07385166734457016,
        0.5273922681808472,
        0.2467193305492401,
        0.17389050126075745,
        0.36992698907852173,
        0.5724838972091675,
        0.04050341993570328,
        -0.07675782591104507
      ],
      [
        -0.2491905391216278,
        -0.501630425453186,
        -0.13386160135269165,
        0.08151715993881226,
        -0.12922702729701996,
        -0.02323833666741848,
        -0.10840068757534027,
        -0.06030319258570671,
        0.14658743143081665,
        0.3280838131904602,
        0.11316021531820297,
        0.1915765255689621,
        0.3877660930156708,
        0.12682636082172394,
        -0.08377120643854141,
        0.20581574738025665,
        -0.03813740983605385
      ],
      [
        -0.09699561446905136,
        0.4522726535797119,
        -0.30547428131103516,
        0.17547835409641266,
        -0.2534469664096832,
        0.06902992725372314,
        -0.05565086007118225,
        0.11227460950613022,
        0.07621017843484879,
        -0.23962679505348206,
        -0.019389232620596886,
        0.19974946975708008,
        0.025483351200819016,
        0.2024044394493103,
        -0.19728073477745056,
        0.1375783383846283,
        -0.14058823883533478
      ],
      [
        -0.14803345501422882,
        -0.8538342714309692,
        0.23406891524791718,
        0.010602968744933605,
        -0.006644283886998892,
        -0.23441822826862335,
        -0.07454429566860199,
        -0.17257335782051086,
        -0.05353556573390961,
        0.0024082791060209274,
        0.20473557710647583,
        0.01659170538187027,
        0.022084485739469528,
        0.039597053080797195,
        -0.17478454113006592,
        -0.012042340822517872,
        0.17073661088943481
      ],
      [
        -0.32261937856674194,
        -0.7905470132827759,
        0.3058711886405945,
        -0.020366182550787926,
        0.04267004504799843,
        0.00754973478615284,
        -0.1359141618013382,
        0.18879656493663788,
        -0.029371237382292747,
        0.1364499181509018,
        -0.05351357161998749,
        -0.08227892965078354,
        -0.24009889364242554,
        -0.03047199733555317,
        0.24736830592155457,
        0.12111208587884903,
        -0.05933351442217827
      ],
      [
        -0.004245808348059654,
        0.43824899196624756,
        -0.08909942209720612,
        0.24957036972045898,
        0.1271485537290573,
        0.39036110043525696,
        0.3627002537250519,
        0.3910355567932129,
        0.1274421364068985,
        0.38479188084602356,
        0.27471449971199036,
        0.41712960600852966,
        0.2583922743797302,
        0.33160439133644104,
        -0.04049297049641609,
        0.1983412355184555,
        0.029903294518589973
      ],
      [
        -0.09446168690919876,
        -0.3967873752117157,
        0.16136281192302704,
        -0.3100416660308838,
        -0.09135588258504868,
        -0.14508847892284393,
        -0.3512507677078247,
        -0.3905484974384308,
        -0.1205972358584404,
        -0.6089233756065369,
        -0.20739948749542236,
        -0.3621428906917572,
        -0.20875713229179382,
        -0.10900149494409561,
        -0.1211412250995636,
        -0.19237755239009857,
        0.08495181053876877
      ],
      [
        -0.12862254679203033,
        0.14039559662342072,
        0.010898195207118988,
        -0.28017333149909973,
        0.012438967823982239,
        0.08706345409154892,
        -0.0013291462091729045,
        -0.4398273229598999,
        -0.2850566804409027,
        0.10457607358694077,
        -0.4426524341106415,
        -0.023801129311323166,
        -0.03274917975068092,
        -0.3419210612773895,
        -0.42593714594841003,
        -0.34844115376472473,
        0.09006862342357635
      ],
      [
        -0.038923073559999466,
        0.17234186828136444,
        0.10807407647371292,
        -0.4051191806793213,
        -0.149692103266716,
        0.3390216827392578,
        0.352936714887619,
        -0.2931460440158844,
        -0.21266455948352814,
        0.249651238322258,
        0.005811082664877176,
        -0.035058021545410156,
        0.034793972969055176,
        -0.41350144147872925,
        -0.09574412554502487,
        0.23960062861442566,
        0.07604990154504776
      ],
      [
        0.2652358114719391,
        0.49731871485710144,
        0.016959110274910927,
        -0.2727651596069336,
        -0.09858567267656326,
        -0.27011048793792725,
        -0.34558549523353577,
        -0.1323024332523346,
        -0.23242324590682983,
        0.01913544163107872,
        0.15502548217773438,
        0.29891639947891235,
        0.1338978409767151,
        0.2531290650367737,
        0.22540085017681122,
        0.08591882139444351,
        -0.1151091530919075
      ],
      [
        0.07588857412338257,
        0.24429191648960114,
        -0.2030920386314392,
        0.21588827669620514,
        0.12046058475971222,
        0.10013513267040253,
        0.17574289441108704,
        0.04958536475896835,
        0.35404959321022034,
        0.128439798951149,
        0.28060516715049744,
        -0.14981168508529663,
        0.09950543195009232,
        0.0321669727563858,
        0.11250020563602448,
        -0.04436875879764557,
        -0.3137481212615967
      ],
      [
        -0.10085605829954147,
        0.1323118507862091,
        0.005137007683515549,
        -0.293670654296875,
        0.1731901317834854,
        0.1332726627588272,
        -0.09181353449821472,
        0.033566366881132126,
        -0.14824292063713074,
        0.06691142171621323,
        0.45614001154899597,
        0.0019009822281077504,
        -0.49665191769599915,
        0.1716020405292511,
        0.45080995559692383,
        -0.30428335070610046,
        -0.26199057698249817
      ],
      [
        0.2435859888792038,
        0.4689401388168335,
        0.08178786188364029,
        -0.28578266501426697,
        0.11542396992444992,
        -0.13858400285243988,
        -0.16406120359897614,
        -0.22710883617401123,
        0.04208222031593323,
        -0.4263198971748352,
        -0.20544448494911194,
        -0.1445280909538269,
        0.2639431953430176,
        -0.07087685167789459,
        -0.21990834176540375,
        0.21871833503246307,
        0.08383359760046005
      ],
      [
        0.23741532862186432,
        0.3788090646266937,
        -0.3981042802333832,
        0.283187597990036,
        0.07888960838317871,
        -0.19772396981716156,
        -0.1455504596233368,
        0.17902109026908875,
        0.11078663170337677,
        -0.14349056780338287,
        0.1196083277463913,
        0.04926895350217819,
        -0.3705359697341919,
        0.2526368200778961,
        -0.13508625328540802,
        -0.23671087622642517,
        0.015617402270436287
      ],
      [
        0.20995715260505676,
        0.2992361783981323,
        -0.1317061185836792,
        0.20050735771656036,
        -0.16824518144130707,
        -0.3416478931903839,
        -0.0085188252851367,
        0.12930186092853546,
        0.16728872060775757,
        -0.30980247259140015,
        -0.20025500655174255,
        0.055549316108226776,
        -0.3442220985889435,
        0.353272944688797,
        -0.09124550968408585,
        -0.07877964526414871,
        0.0009642853983677924
      ],
      [
        -0.2787697911262512,
        -0.4750961363315582,
        0.12761300802230835,
        -0.36974620819091797,
        -0.07689439505338669,
        -0.4006868302822113,
        -0.28085601329803467,
        -0.4537891745567322,
        -0.031694650650024414,
        -0.05406928062438965,
        -0.26069387793540955,
        0.18103063106536865,
        0.14844487607479095,
        0.22918809950351715,
        0.33257749676704407,
        0.3054581582546234,
        -0.11249130964279175
      ],
      [
        0.2114696055650711,
        0.4993884861469269,
        -0.13853813707828522,
        0.019937459379434586,
        -0.024944979697465897,
        0.32202842831611633,
        0.17756018042564392,
        0.4026874303817749,
        0.06069815158843994,
        0.021664874628186226,
        0.17137622833251953,
        -0.07909739762544632,
        -0.30377396941185,
        -0.09294991940259933,
        -0.4392218589782715,
        -0.18441329896450043,
        0.5351698994636536
      ],
      [
        0.24777980148792267,
        -0.41755667328834534,
        0.0994950383901596,
        0.14683863520622253,
        0.14929959177970886,
        -0.36177051067352295,
        0.20784983038902283,
        0.28740134835243225,
        0.10281720757484436,
        -0.09044737368822098,
        0.115821473300457,
        -0.01018194854259491,
        0.10470139980316162,
        -0.030912814661860466,
        0.02325369231402874,
        -0.2415710836648941,
        0.0016870173858478665
      ],
      [
        -0.3525136113166809,
        -0.6706269979476929,
        -0.092987559735775,
        -0.11126016080379486,
        0.09954303503036499,
        -0.1108587309718132,
        0.05253774672746658,
        0.11203360557556152,
        -0.09181245416402817,
        -0.20759250223636627,
        -0.1393161416053772,
        -0.04854360967874527,
        0.11603289097547531,
        0.09533504396677017,
        0.10081781446933746,
        -0.062220390886068344,
        0.04933355376124382
      ],
      [
        0.3174283802509308,
        0.38689056038856506,
        0.13341209292411804,
        0.18232041597366333,
        0.18529711663722992,
        -0.03504233807325363,
        -0.25777074694633484,
        0.021704792976379395,
        -0.2945403456687927,
        -0.0808054506778717,
        0.12749901413917542,
        -0.186976820230484,
        -0.33035922050476074,
        -0.3167281448841095,
        -0.026564331725239754,
        -0.12143044173717499,
        -0.0166412815451622
      ],
      [
        -0.15871664881706238,
        0.10305947065353394,
        0.051001932471990585,
        0.27653810381889343,
        0.13304366171360016,
        -0.20221857726573944,
        0.015508686192333698,
        0.22618721425533295,
        0.10203433781862259,
        0.3027297556400299,
        -0.4793747663497925,
        -0.02084130048751831,
        0.23932339251041412,
        0.10129119455814362,
        -0.4276752173900604,
        -0.19311760365962982,
        0.26040905714035034
      ],
      [
        0.1007951870560646,
        0.05409829691052437,
        -0.1512027382850647,
        -0.39985191822052,
        -0.18149811029434204,
        0.5408042073249817,
        0.19495068490505219,
        -0.3181774914264679,
        0.31521058082580566,
        -0.019692368805408478,
        -0.4448254704475403,
        0.1251036822795868,
        0.3026847839355469,
        -0.35494229197502136,
        -0.11272897571325302,
        0.34444448351860046,
        0.1424943059682846
      ],
      [
        -0.31190985441207886,
        -0.5445278882980347,
        0.008661866188049316,
        -0.40485477447509766,
        -0.24504289031028748,
        0.5192850232124329,
        0.3679853677749634,
        -0.31713759899139404,
        0.047960925847291946,
        -0.01646461896598339,
        0.07201042026281357,
        0.012243240140378475,
        -0.17494040727615356,
        -0.291189581155777,
        -0.4431602954864502,
        0.04236171767115593,
        0.014975115656852722
      ],
      [
        -0.27455705404281616,
        0.2568397521972656,
        -0.041660603135824203,
        0.0015151802217587829,
        -0.17315983772277832,
        0.4886229634284973,
        -0.021125057712197304,
        -0.4834740459918976,
        0.0880158394575119,
        0.4883679449558258,
        -0.4809207618236542,
        -0.15968547761440277,
        0.4931013882160187,
        -0.07926354557275772,
        -0.48794665932655334,
        0.3259691596031189,
        0.0888989046216011
      ],
      [
        0.02116534672677517,
        -0.1302681416273117,
        0.0770895704627037,
        0.06687968224287033,
        0.04941384121775627,
        0.10471735894680023,
        0.20089353621006012,
        0.31487494707107544,
        -0.27698591351509094,
        -0.3285236358642578,
        0.2963349521160126,
        -0.16859422624111176,
        -0.38414591550827026,
        0.17628946900367737,
        0.22066880762577057,
        -0.1507633924484253,
        -0.11462634056806564
      ],
      [
        0.1923988312482834,
        0.5911018252372742,
        0.11114583164453506,
        0.01783229224383831,
        -0.10416287928819656,
        0.3601185381412506,
        0.14064951241016388,
        -0.09997297078371048,
        0.08791843801736832,
        0.22834905982017517,
        -0.020897338166832924,
        0.27803945541381836,
        0.4248081147670746,
        0.18263675272464752,
        -0.038579683750867844,
        0.35631465911865234,
        -0.07373690605163574
      ],
      [
        0.23269231617450714,
        -0.09783883392810822,
        0.0322837196290493,
        -0.13830865919589996,
        -0.23720112442970276,
        -0.4937000870704651,
        -0.497222363948822,
        0.11580279469490051,
        0.16444259881973267,
        -0.42203983664512634,
        -0.14097055792808533,
        -0.4538109302520752,
        0.06930327415466309,
        0.1311342716217041,
        -0.2974739968776703,
        -0.03505986928939819,
        -0.09805136919021606
      ],
      [
        0.2721177637577057,
        0.09371094405651093,
        -0.20955485105514526,
        -0.33940309286117554,
        -0.029124334454536438,
        -0.45079153776168823,
        0.06707358360290527,
        -0.1473565548658371,
        -0.46476247906684875,
        -0.16512812674045563,
        -0.0856308564543724,
        -0.062319956719875336,
        -0.3221510946750641,
        -0.19876167178153992,
        0.36745232343673706,
        0.127497136592865,
        0.08702792227268219
      ],
      [
        0.04421813413500786,
        -0.5853124856948853,
        -0.10332516580820084,
        -0.10927940905094147,
        -0.04471075162291527,
        0.018105218186974525,
        -0.19257855415344238,
        0.12203872203826904,
        0.09404315054416656,
        -0.38194626569747925,
        0.1774998903274536,
        -0.3176485002040863,
        -0.24357227981090546,
        -0.06942226737737656,
        -0.08870829641819,
        -0.08993159234523773,
        0.07942551374435425
      ],
      [
        -0.07711287587881088,
        -0.4830823838710785,
        -0.15168051421642303,
        0.08606403321027756,
        0.22939786314964294,
        -0.31706875562667847,
        0.026408584788441658,
        0.1496569812297821,
        -0.26427745819091797,
        -0.060585398226976395,
        -0.18554817140102386,
        -0.04559683799743652,
        -0.4829404056072235,
        0.02424219809472561,
        -0.11819379031658173,
        -0.3349637985229492,
        -0.05012272298336029
      ],
      [
        0.06371567398309708,
        0.2362462729215622,
        -0.12243910133838654,
        -0.17935054004192352,
        -0.4179055988788605,
        0.21342109143733978,
        0.34086430072784424,
        -0.5161736011505127,
        0.006918217055499554,
        0.3989497125148773,
        -0.09819042682647705,
        -0.07810419052839279,
        0.31457552313804626,
        -0.14460523426532745,
        -0.1270245611667633,
        -0.12158878892660141,
        0.2113661766052246
      ],
      [
        0.047622472047805786,
        0.09421028196811676,
        -0.15666897594928741,
        -0.3986663818359375,
        -0.18030290305614471,
        -0.285172700881958,
        -0.17645835876464844,
        -0.2811596691608429,
        -0.0811944380402565,
        -0.29960373044013977,
        -0.10749546438455582,
        -0.12158317118883133,
        0.23468472063541412,
        0.33618685603141785,
        0.2793988883495331,
        0.14941494166851044,
        -0.06450273096561432
      ],
      [
        -0.19354213774204254,
        0.05841488391160965,
        0.09609433263540268,
        -0.33800002932548523,
        -0.17151205241680145,
        0.47032642364501953,
        0.29512059688568115,
        -0.46628984808921814,
        0.20954346656799316,
        0.2426506131887436,
        -0.13781140744686127,
        -0.12770050764083862,
        0.37260136008262634,
        0.03238941729068756,
        -0.49041983485221863,
        0.044252779334783554,
        -0.1885131299495697
      ],
      [
        -0.1609407216310501,
        0.21108168363571167,
        -0.04402358829975128,
        0.19792665541172028,
        -0.013680468313395977,
        -0.05472973361611366,
        -0.12513482570648193,
        0.4180302321910858,
        -0.20298750698566437,
        0.158641517162323,
        0.5172525644302368,
        -0.11431307345628738,
        -0.41955921053886414,
        0.12324338406324387,
        0.3553846776485443,
        -0.21548992395401,
        -0.07477441430091858
      ]
    ],
    "bias": [
      -0.19094370305538177,
      0.07850412279367447,
      0.13432897627353668,
      0.20233787596225739,
      -0.506568968296051,
      0.24283625185489655,
      -0.28543463349342346,
      -0.5559296607971191,
      0.18089021742343903,
      0.09553918987512589,
      0.00797484815120697,
      0.5407238006591797,
      0.05141257494688034,
      0.20724405348300934,
      -0.5556515455245972,
      0.4583248496055603,
      0.3264849781990051,
      0.3010371923446655,
      -0.12719814479351044,
      0.23017114400863647,
      0.4712499678134918,
      0.17043030261993408,
      0.5058429837226868,
      0.41752544045448303,
      0.28647252917289734,
      -0.0905982181429863,
      -0.08530484139919281,
      -0.0030765850096940994,
      -0.09964876621961594,
      0.06649129092693329,
      0.12609319388866425,
      -0.3593418002128601,
      0.1947544813156128,
      -0.7617058157920837,
      0.2502937614917755,
      -0.01142176240682602,
      0.024500902742147446,
      -0.07791644334793091,
      0.11036413162946701,
      0.0004279994172975421,
      0.6965484619140625,
      0.5776453018188477,
      -0.06539856642484665,
      0.7928428053855896,
      0.3317301273345947,
      -0.12532860040664673,
      0.22304031252861023,
      0.7051576375961304,
      -0.03789764642715454,
      0.359140008687973,
      0.0859617367386818,
      0.10730583965778351,
      -0.16859190165996552,
      -0.39286500215530396,
      0.5482390522956848,
      -0.35118716955184937,
      0.09699831157922745,
      -0.05678623169660568,
      0.1946534514427185,
      0.34987470507621765,
      -0.18090982735157013,
      0.43347451090812683,
      0.14755314588546753,
      0.40655970573425293
    ],
    "input_dim": 17,
    "output_dim": 64
  },
  "layer_1": {
    "weight": [
      [
        0.06602972745895386,
        -0.001581182237714529,
        -0.03701482713222504,
        0.09361574053764343,
        0.34403449296951294,
        0.26092538237571716,
        -0.020620033144950867,
        0.07671549916267395,
        0.1912568062543869,
        -0.08604073524475098,
        0.023221280425786972,
        0.10377608984708786,
        -0.22230234742164612,
        -0.06808877736330032,
        0.00821749772876501,
        0.12202194333076477,
        0.05228518694639206,
        0.03976026177406311,
        -0.010357162915170193,
        -0.0977771207690239,
        0.059680111706256866,
        0.1859050691127777,
        0.19293548166751862,
        0.11715958267450333,
        -0.005606922321021557,
        0.370748907327652,
        0.11590313911437988,
        -0.029083648696541786,
        -0.09737389534711838,
        -0.11799012869596481,
        0.04083346575498581,
        0.013122347183525562,
        0.08922584354877472,
        -0.22871093451976776,
        0.15040282905101776,
        -0.17885003983974457,
        -0.04316500201821327,
        -0.00636016670614481,
        -0.044435277581214905,
        0.31065571308135986,
        0.35572412610054016,
        0.20442330837249756,
        0.0633922889828682,
        0.09387668967247009,
        -0.08780147135257721,
        0.1761896163225174,
        -0.5738584399223328,
        -0.008473710156977177,
        0.035352375358343124,
        -0.09739001840353012,
        -0.04651889204978943,
        0.021627157926559448,
        -0.09098567068576813,
        -0.1764403134584427,
        0.17168548703193665,
        0.022469133138656616,
        0.10734464973211288,
        0.047855500131845474,
        -0.017220916226506233,
        0.1257646530866623,
        0.04918238893151283,
        0.37499645352363586,
        0.12413717061281204,
        0.06594739854335785
      ],
      [
        0.06459476798772812,
        0.2584158778190613,
        0.15972258150577545,
        -0.0325823612511158,
        0.27424997091293335,
        0.13962677121162415,
        0.2905406355857849,
        0.3772730529308319,
        -0.29594364762306213,
        -0.33909356594085693,
        0.1460394561290741,
        0.015669239684939384,
        -0.016946639865636826,
        0.2281665951013565,
        0.4628698527812958,
        0.15636800229549408,
        0.15497326850891113,
        0.1014680415391922,
        -0.08754578977823257,
        -0.28703272342681885,
        -0.05663671717047691,
        -0.17699508368968964,
        0.16402845084667206,
        0.059072960168123245,
        0.051468756049871445,
        0.0691271722316742,
        -0.015522331930696964,
        -0.07814712077379227,
        0.22466988861560822,
        0.12851819396018982,
        -0.1359677016735077,
        0.17912021279335022,
        -0.097368985414505,
        0.062298376113176346,
        0.2754656970500946,
        0.1798199713230133,
        -0.17102980613708496,
        -0.07200831174850464,
        0.17556869983673096,
        0.15848323702812195,
        0.38339903950691223,
        0.28151363134384155,
        -0.09044842422008514,
        0.02258780598640442,
        0.045135390013456345,
        0.0071744793094694614,
        0.13117139041423798,
        -0.08640917390584946,
        0.025677384808659554,
        0.12299419939517975,
        -0.02440149150788784,
        0.289075642824173,
        0.05586222559213638,
        0.4200660288333893,
        -0.08616451919078827,
        0.16183409094810486,
        -0.24199214577674866,
        -0.107251837849617,
        0.015240378677845001,
        -0.14586269855499268,
        0.14085808396339417,
        0.1648768186569214,
        0.18332059681415558,
        0.05450603365898132
      ],
      [
        0.27528461813926697,
        0.367544949054718,
        0.25250017642974854,
        -0.11857867985963821,
        0.08699225634336472,
        0.06959988921880722,
        0.1915062963962555,
        -0.10229110717773438,
        0.08936852961778641,
        0.1399906724691391,
        -0.10569202154874802,
        0.16880957782268524,
        0.21014350652694702,
        0.029708510264754295,
        0.10004675388336182,
        0.23171743750572205,
        0.003296345006674528,
        0.09214742481708527,
        -0.0014022946124896407,
        -0.07615188509225845,
        0.07898077368736267,
        -0.06936731934547424,
        0.15022806823253632,
        0.1539994776248932,
        -0.044883809983730316,
        -0.11057068407535553,
        -0.010307343676686287,
        0.21585611999034882,
        0.2529565989971161,
        0.21408769488334656,
        0.23183177411556244,
        0.18792258203029633,
        0.04329170286655426,
        0.5418381690979004,
        0.21409155428409576,
        0.0823662132024765,
        -0.07604727894067764,
        -0.09969397634267807,
        0.026712708175182343,
        -0.08147502690553665,
        0.12972065806388855,
        0.04018394276499748,
        0.056931983679533005,
        -0.039529502391815186,
        0.16664651036262512,
        0.2740553617477417,
        -0.06833140552043915,
        0.24108171463012695,
        0.2690039575099945,
        -0.0670265257358551,
        0.09409673511981964,
        0.2816423773765564,
        0.3171360194683075,
        0.12235205620527267,
        -0.05607957765460014,
        -0.020658092573285103,
        -0.07543134689331055,
        -0.22250261902809143,
        -0.06584714353084564,
        -0.03820409998297691,
        -0.030031323432922363,
        0.014353035017848015,
        0.22057682275772095,
        0.20209349691867828
      ],
      [
        0.029122233390808105,
        0.042516350746154785,
        -0.013676021248102188,
        0.1975400447845459,
        0.09051468968391418,
        0.09161549061536789,
        0.028717974200844765,
        0.034816645085811615,
        0.1863415539264679,
        0.17526543140411377,
        -0.007299831137061119,
        0.10653740912675858,
        -0.044435977935791016,
        0.02042771317064762,
        0.3182432949542999,
        0.13789603114128113,
        -0.0011695334687829018,
        0.16741251945495605,
        -0.049527909606695175,
        0.013947389088571072,
        0.1024153009057045,
        0.31619617342948914,
        0.14522269368171692,
        0.005880709737539291,
        -0.019448332488536835,
        0.20113280415534973,
        -0.12620626389980316,
        0.17813783884048462,
        0.021617982536554337,
        -0.1997266262769699,
        0.0344432033598423,
        0.16613751649856567,
        0.15141837298870087,
        -0.20290784537792206,
        0.005252623464912176,
        0.011355197057127953,
        0.18538856506347656,
        -0.0917152538895607,
        -0.19111284613609314,
        0.25464141368865967,
        0.027789786458015442,
        0.02629348263144493,
        0.2019844353199005,
        0.10624648630619049,
        0.21173416078090668,
        0.2902134954929352,
        -0.005690976046025753,
        0.054623451083898544,
        -0.040515750646591187,
        0.22871802747249603,
        0.2747098207473755,
        0.07626664638519287,
        -0.04694964364171028,
        0.2763291597366333,
        0.05379185453057289,
        0.0610809363424778,
        0.3081482946872711,
        0.20414580404758453,
        0.09589620679616928,
        0.001037438865751028,
        -0.04865328595042229,
        0.3017256259918213,
        0.1332605928182602,
        0.030438099056482315
      ],
      [
        -0.00015524888294748962,
        0.21938277781009674,
        -0.2672417163848877,
        -7.869050023145974e-06,
        0.21208995580673218,
        -0.06427104026079178,
        0.030136168003082275,
        0.2880101799964905,
        0.08585069328546524,
        0.17360907793045044,
        0.05898219719529152,
        0.5370888113975525,
        0.15781539678573608,
        0.07640726119279861,
        0.609969973564148,
        0.2373262196779251,
        0.02269905060529709,
        0.11209303885698318,
        -0.1404089480638504,
        -0.24261713027954102,
        -0.0748349204659462,
        -0.1975044310092926,
        -0.031398460268974304,
        -0.11815991252660751,
        -0.1261148452758789,
        0.08669339865446091,
        -0.11046502739191055,
        0.09572464972734451,
        -0.07950793206691742,
        0.0033719937782734632,
        0.01032937504351139,
        0.15061327815055847,
        -0.03634699061512947,
        0.3017559051513672,
        0.13266392052173615,
        -0.047606516629457474,
        0.11140895634889603,
        0.12913142144680023,
        0.07506924867630005,
        -0.14517556130886078,
        0.14181269705295563,
        -0.09840485453605652,
        0.17471879720687866,
        -0.020443685352802277,
        -0.009568167850375175,
        0.09718306362628937,
        -0.12681418657302856,
        0.14895415306091309,
        0.23379501700401306,
        -0.05452072620391846,
        0.1856861710548401,
        0.2844526171684265,
        -0.04073609039187431,
        0.3376423418521881,
        -0.22615106403827667,
        0.27082398533821106,
        0.16914768517017365,
        -0.2230146825313568,
        -0.12707309424877167,
        -0.019738301634788513,
        0.2607411742210388,
        -0.06480008363723755,
        0.3841855525970459,
        -0.08983737975358963
      ],
      [
        -0.07387936115264893,
        0.031748827546834946,
        -0.17048951983451843,
        0.07599514722824097,
        0.1930493712425232,
        -0.07892230898141861,
        0.028434889391064644,
        0.6039280295372009,
        0.17359286546707153,
        0.24355344474315643,
        0.07678841054439545,
        0.4913037121295929,
        -0.013087385334074497,
        0.01743176020681858,
        0.9232074022293091,
        0.043546162545681,
        0.07670466601848602,
        -0.06946756690740585,
        -0.28994569182395935,
        -0.24577447772026062,
        -0.03869586065411568,
        -0.012580784037709236,
        -0.022412573918700218,
        -0.23229868710041046,
        -0.052446722984313965,
        0.002656494500115514,
        -0.10334241390228271,
        0.23544664680957794,
        -0.03229755535721779,
        0.04300621151924133,
        -0.027863088995218277,
        0.2712740898132324,
        0.09435193985700607,
        0.008111071772873402,
        0.0564829483628273,
        0.03622831776738167,
        0.15141476690769196,
        0.09919954836368561,
        0.18489059805870056,
        -0.09660390764474869,
        -0.20532740652561188,
        0.005619728937745094,
        0.05313251540064812,
        -0.12244991958141327,
        -0.0226487684994936,
        -0.026610298082232475,
        -0.1592342108488083,
        0.04041138291358948,
        0.02733866684138775,
        -0.11717443913221359,
        0.07970356196165085,
        0.5521228909492493,
        0.0567891001701355,
        0.5509884357452393,
        -0.05219445005059242,
        0.15931114554405212,
        0.10952519625425339,
        -0.17479653656482697,
        -0.1612711101770401,
        -0.1575622856616974,
        0.1548277884721756,
        -0.1945253610610962,
        0.16574349999427795,
        -0.330769807100296
      ],
      [
        0.22017773985862732,
        0.2428707778453827,
        0.2874843180179596,
        -0.08216037601232529,
        -0.04468078911304474,
        0.14874093234539032,
        0.07198948413133621,
        -0.11689221858978271,
        0.26679912209510803,
        0.30588504672050476,
        0.07473959028720856,
        -0.27023401856422424,
        0.07418885827064514,
        0.014844367280602455,
        -0.047040246427059174,
        0.12733905017375946,
        0.09017320722341537,
        0.015951132401823997,
        0.11442925035953522,
        0.1440403163433075,
        0.20356564223766327,
        0.3330671191215515,
        0.17444992065429688,
        0.09621202945709229,
        0.15060527622699738,
        0.14571771025657654,
        0.008034765720367432,
        0.2698146402835846,
        -0.030727028846740723,
        -0.022736987099051476,
        0.3944318890571594,
        0.17472133040428162,
        0.2295585721731186,
        0.14297524094581604,
        0.07201477140188217,
        0.29688993096351624,
        -0.04221364110708237,
        -0.3416271209716797,
        -0.15430307388305664,
        0.19652456045150757,
        0.05752810090780258,
        0.21337628364562988,
        -0.09061794728040695,
        0.17689867317676544,
        0.08120861649513245,
        0.14342284202575684,
        -0.054098282009363174,
        0.2119355946779251,
        0.21601851284503937,
        0.1025034710764885,
        0.08161237090826035,
        -0.08008163422346115,
        -0.13538412749767303,
        -0.10589000582695007,
        0.12247058004140854,
        0.02415628172457218,
        0.1933915764093399,
        -0.1880635768175125,
        0.1972871869802475,
        0.05806481093168259,
        -0.034274064004421234,
        0.10998116433620453,
        0.11876970529556274,
        0.16266760230064392
      ],
      [
        0.014886113815009594,
        0.14703220129013062,
        -0.05349413678050041,
        0.19874121248722076,
        -0.20153264701366425,
        0.029476894065737724,
        0.09854304045438766,
        0.20801298320293427,
        0.1843286156654358,
        0.15020814538002014,
        -0.0014604817843064666,
        -0.17509044706821442,
        0.09435667097568512,
        -0.11573334783315659,
        0.6159643530845642,
        0.06519020348787308,
        0.13084812462329865,
        0.10702584683895111,
        0.2578792870044708,
        0.1504693478345871,
        0.06839793175458908,
        0.09248381853103638,
        0.16783620417118073,
        0.12783727049827576,
        -0.18433988094329834,
        -0.07274620234966278,
        0.06748425960540771,
        0.007853751070797443,
        -0.1738651990890503,
        -0.08480142802000046,
        -0.037690419703722,
        -0.08527648448944092,
        0.030259983614087105,
        0.3091372549533844,
        -0.05979391187429428,
        -0.011478838510811329,
        0.38651928305625916,
        0.04577060043811798,
        -0.27249273657798767,
        -0.06134539842605591,
        -0.08475956320762634,
        0.09053065627813339,
        0.18151222169399261,
        0.0896734893321991,
        0.17460717260837555,
        0.048020996153354645,
        -0.15693020820617676,
        0.11329691112041473,
        0.1796880066394806,
        0.14254437386989594,
        0.1481182724237442,
        0.09324825555086136,
        -0.1755039393901825,
        0.5335342884063721,
        -0.0793808177113533,
        -0.2842329442501068,
        0.2736598551273346,
        0.022993529215455055,
        0.20945997536182404,
        0.26404455304145813,
        -0.08001091331243515,
        -0.020079510286450386,
        0.020536931231617928,
        0.11844680458307266
      ],
      [
        -0.01597619242966175,
        -0.0995149314403534,
        0.02845906652510166,
        0.21223551034927368,
        0.10556118935346603,
        -0.09051268547773361,
        0.05572596564888954,
        0.029049422591924667,
        0.22318583726882935,
        0.07466182112693787,
        0.32487180829048157,
        0.09289257228374481,
        -0.12505653500556946,
        -0.05771198496222496,
        -0.010318859480321407,
        -0.03306163102388382,
        -0.00882577896118164,
        0.14376302063465118,
        0.08207046985626221,
        -0.10137484222650528,
        0.07046757638454437,
        -0.035597268491983414,
        -0.0511200875043869,
        0.07488375157117844,
        0.06059570983052254,
        0.21501590311527252,
        0.14810694754123688,
        -0.12552224099636078,
        -0.11348537355661392,
        0.11093417555093765,
        -0.032331712543964386,
        0.010782737284898758,
        0.029721884056925774,
        0.11687891185283661,
        -0.2144385427236557,
        0.007659043185412884,
        0.21412229537963867,
        0.1456594616174698,
        0.05643428862094879,
        0.1686697155237198,
        -0.09614188969135284,
        0.09887988120317459,
        0.12191762030124664,
        -0.006035222206264734,
        0.19285690784454346,
        0.03573935851454735,
        0.0022677918896079063,
        -0.09630056470632553,
        -0.07469895482063293,
        0.3006606996059418,
        0.07862254232168198,
        0.051889292895793915,
        -0.13485364615917206,
        0.001539465389214456,
        0.08298294991254807,
        0.1121373251080513,
        0.20822228491306305,
        0.26324114203453064,
        -0.11541478335857391,
        0.07112360745668411,
        -0.13479453325271606,
        0.155669704079628,
        0.027403786778450012,
        0.008307374082505703
      ],
      [
        0.1786765158176422,
        -0.11042051017284393,
        0.17349457740783691,
        -0.14162136614322662,
        0.19317348301410675,
        0.03225161135196686,
        -0.08347409963607788,
        -0.008301503024995327,
        0.044459834694862366,
        0.004071854520589113,
        0.20466497540473938,
        -0.2709188163280487,
        -0.05532138794660568,
        0.04845011606812477,
        0.08103391528129578,
        -0.005915732588618994,
        -0.07920389622449875,
        -0.022557342424988747,
        0.3416888117790222,
        0.2718040943145752,
        0.21294906735420227,
        0.07787911593914032,
        0.20307162404060364,
        0.023937445133924484,
        0.19537819921970367,
        0.1339089274406433,
        0.17592297494411469,
        0.01670967787504196,
        0.29573556780815125,
        -0.060133371502161026,
        0.072574682533741,
        0.16219599545001984,
        0.03617659956216812,
        -0.018767857924103737,
        0.033322773873806,
        0.23730774223804474,
        0.09131418168544769,
        -0.08951729536056519,
        0.11123668402433395,
        0.24909734725952148,
        -0.044426605105400085,
        0.06030462682247162,
        -0.09909307211637497,
        0.006997284479439259,
        -0.021845929324626923,
        0.018286585807800293,
        -0.04145481064915657,
        -0.0853421613574028,
        0.011678609065711498,
        0.011262528598308563,
        0.10966450721025467,
        -0.08282649517059326,
        0.09384013712406158,
        -0.03381628543138504,
        0.16526809334754944,
        0.16899272799491882,
        0.03281697630882263,
        0.3971596658229828,
        0.11862819641828537,
        -0.11061292886734009,
        0.08660801500082016,
        0.005797713063657284,
        0.025220725685358047,
        0.22183319926261902
      ],
      [
        0.07889049500226974,
        0.16288618743419647,
        -0.03492939844727516,
        -0.1053912490606308,
        0.08750755339860916,
        0.17169038951396942,
        -0.1094728633761406,
        0.19599972665309906,
        0.006216437090188265,
        0.10479418188333511,
        -0.1355992555618286,
        0.04943288490176201,
        0.1042555570602417,
        0.18062716722488403,
        0.24816590547561646,
        0.1924981325864792,
        0.12191014736890793,
        0.19507069885730743,
        0.08387076109647751,
        -0.003568178741261363,
        0.06062466278672218,
        0.08397337794303894,
        0.16046960651874542,
        0.11419116705656052,
        0.06710167974233627,
        -0.03636794909834862,
        0.05517804995179176,
        0.3328269422054291,
        0.21875688433647156,
        0.2833569347858429,
        0.07129451632499695,
        0.08109081536531448,
        0.056095246225595474,
        -0.22344177961349487,
        -0.08811204880475998,
        0.413155734539032,
        -0.012021619826555252,
        -0.14644040167331696,
        -0.07386085391044617,
        -0.04834279045462608,
        0.1863328367471695,
        -0.1280965805053711,
        0.0841602012515068,
        0.07772213965654373,
        0.12675398588180542,
        -0.02566196210682392,
        0.4000281095504761,
        0.23327971994876862,
        0.07350286841392517,
        0.07620111107826233,
        0.21365325152873993,
        0.18090586364269257,
        -0.1207122877240181,
        0.16150692105293274,
        0.0775592178106308,
        0.14875765144824982,
        -0.062147874385118484,
        -0.11590340733528137,
        0.02696380205452442,
        -0.01919948123395443,
        0.15203362703323364,
        -0.005768462549895048,
        0.01564016006886959,
        -0.04939449951052666
      ],
      [
        0.10993915051221848,
        -0.1709815412759781,
        0.04694472998380661,
        0.19938933849334717,
        0.03369513899087906,
        0.08600003272294998,
        0.05898064747452736,
        -0.21419455111026764,
        0.14528533816337585,
        0.15255409479141235,
        -0.09543398022651672,
        -0.10870978981256485,
        0.19475436210632324,
        -0.13297785818576813,
        -0.28705155849456787,
        0.07576245069503784,
        0.05601382255554199,
        0.2904515266418457,
        0.19582945108413696,
        0.20027922093868256,
        0.07103097438812256,
        0.028614822775125504,
        0.05683746933937073,
        0.056620001792907715,
        0.17794959247112274,
        0.15048600733280182,
        0.16826647520065308,
        0.07635252922773361,
        -0.02955416776239872,
        0.22431495785713196,
        0.10116606950759888,
        -0.14393413066864014,
        0.04341771453619003,
        -0.04966101422905922,
        -0.2133643478155136,
        0.005333465524017811,
        0.2778787910938263,
        0.12132906168699265,
        0.04460975155234337,
        -0.08143295347690582,
        -0.01980542577803135,
        0.21740546822547913,
        0.11754258722066879,
        0.2826325595378876,
        0.19294586777687073,
        -0.019197838380932808,
        0.2664395272731781,
        0.24258668720722198,
        -0.05704199895262718,
        0.24751131236553192,
        0.13809846341609955,
        -0.09378238767385483,
        0.11374572664499283,
        -0.03341221064329147,
        0.11252260953187943,
        -0.22314630448818207,
        0.20749561488628387,
        0.2600317895412445,
        0.25562289357185364,
        0.23509818315505981,
        -0.0536755695939064,
        0.03427721932530403,
        -0.07212170958518982,
        0.2767176330089569
      ],
      [
        0.01902603544294834,
        -0.09209570288658142,
        0.18196117877960205,
        0.12628351151943207,
        0.033716779202222824,
        0.065567746758461,
        -0.019671225920319557,
        -0.2710147202014923,
        0.10812246054410934,
        0.1948850005865097,
        0.2204633504152298,
        -0.23083721101284027,
        0.13385522365570068,
        0.027183979749679565,
        -0.33107733726501465,
        0.10628923028707504,
        0.1928289830684662,
        0.2490275651216507,
        0.20380567014217377,
        0.30992555618286133,
        0.13805869221687317,
        0.17104610800743103,
        0.12611687183380127,
        0.18415218591690063,
        0.08065284043550491,
        0.2598364055156708,
        -0.018434831872582436,
        0.02292126789689064,
        0.011211991310119629,
        0.14600081741809845,
        0.0005215250421315432,
        -0.1710120439529419,
        0.04031747952103615,
        -0.04055678844451904,
        0.04040447622537613,
        -0.07842329889535904,
        0.32726725935935974,
        0.16423049569129944,
        -0.2333294153213501,
        0.15007367730140686,
        0.056520767509937286,
        0.09640808403491974,
        0.11231225728988647,
        0.15144070982933044,
        0.09423816204071045,
        0.2694513499736786,
        0.17793722450733185,
        0.14659935235977173,
        0.018660616129636765,
        0.2290036827325821,
        0.026392130181193352,
        -0.1542481929063797,
        -0.19507195055484772,
        -0.2243456244468689,
        0.1764003038406372,
        -0.18545158207416534,
        0.20489680767059326,
        0.3076978325843811,
        0.277525931596756,
        0.15817907452583313,
        -0.2020709365606308,
        0.0644838958978653,
        -0.21252532303333282,
        0.3357483148574829
      ],
      [
        0.07191430777311325,
        0.11997385323047638,
        -0.12379106134176254,
        0.0205683670938015,
        0.36553168296813965,
        0.0022789251524955034,
        0.176965594291687,
        0.7882367968559265,
        -0.06412698328495026,
        -0.16529513895511627,
        -0.03894146904349327,
        0.38081127405166626,
        0.10947678983211517,
        0.19241347908973694,
        0.895766019821167,
        0.055801406502723694,
        0.18488329648971558,
        0.016966866329312325,
        -0.15012973546981812,
        -0.9663711786270142,
        -0.43683120608329773,
        -0.2632588744163513,
        -0.282198041677475,
        -0.18973366916179657,
        -0.12576796114444733,
        -0.01890111342072487,
        -0.08114364743232727,
        0.1082315742969513,
        -0.014112358912825584,
        -0.15037594735622406,
        -0.14665722846984863,
        0.13933153450489044,
        0.0034694194328039885,
        0.24379152059555054,
        -0.11794736236333847,
        0.049832265824079514,
        0.007556723430752754,
        0.14811263978481293,
        0.22251324355602264,
        -0.08778464049100876,
        -0.37904271483421326,
        -0.32703879475593567,
        0.07339070737361908,
        -0.7163149118423462,
        0.17097051441669464,
        -0.040893860161304474,
        0.039523761719465256,
        -0.7002173066139221,
        0.18017838895320892,
        -0.1970900595188141,
        0.09531592577695847,
        0.4041041135787964,
        0.18768462538719177,
        0.7587942481040955,
        -0.516655683517456,
        0.31888240575790405,
        -0.1198001280426979,
        0.03413292393088341,
        -0.10338082909584045,
        -0.3895060122013092,
        0.5326014757156372,
        -0.06822046637535095,
        0.3459297716617584,
        -0.5546640753746033
      ],
      [
        0.04582967981696129,
        -0.004595230333507061,
        0.0911400094628334,
        0.1236049011349678,
        -0.01404232531785965,
        0.15149611234664917,
        -0.060107432305812836,
        -0.1583409160375595,
        -0.02814394049346447,
        0.10306298732757568,
        0.014590023085474968,
        -0.16246910393238068,
        0.04075942561030388,
        -0.14225903153419495,
        -0.2075212001800537,
        0.13994896411895752,
        0.27436086535453796,
        0.13317258656024933,
        0.1698990762233734,
        0.18592897057533264,
        0.1331774741411209,
        0.2024143934249878,
        0.2090965360403061,
        0.15465047955513,
        0.08142274618148804,
        0.1637415736913681,
        0.1738235056400299,
        0.2437770962715149,
        -0.002873837947845459,
        0.17038783431053162,
        0.14751577377319336,
        -0.003959116991609335,
        0.11923259496688843,
        -0.2959834337234497,
        -0.31950700283050537,
        0.20047760009765625,
        0.027697449550032616,
        0.20133131742477417,
        0.009177732281386852,
        0.047296684235334396,
        0.22675178945064545,
        0.2735605835914612,
        0.22373148798942566,
        0.22755588591098785,
        0.1689298003911972,
        -0.11149296164512634,
        0.154892697930336,
        0.03892957419157028,
        -0.17364126443862915,
        0.25250324606895447,
        0.044650331139564514,
        -0.25018566846847534,
        -0.13682425022125244,
        -0.1175464615225792,
        0.26970863342285156,
        0.00801333598792553,
        0.2797212600708008,
        0.2129940688610077,
        0.05729462206363678,
        0.16199791431427002,
        0.09022544324398041,
        0.1400056928396225,
        -0.07716557383537292,
        0.2485678642988205
      ],
      [
        0.1399344652891159,
        -0.06956399977207184,
        0.046610113233327866,
        0.11455955356359482,
        0.11141649633646011,
        0.18859346210956573,
        0.21893571317195892,
        0.058574747294187546,
        0.16112340986728668,
        -0.13712956011295319,
        0.3644062280654907,
        -0.011608634144067764,
        0.2671906352043152,
        -0.002263170201331377,
        0.0636100098490715,
        0.17033961415290833,
        0.17829690873622894,
        0.03727125748991966,
        0.21188496053218842,
        0.2422909438610077,
        0.10036882758140564,
        -0.22261984646320343,
        0.10961557924747467,
        0.31397774815559387,
        0.13088342547416687,
        0.029057186096906662,
        0.1750507652759552,
        -0.16997130215168,
        -0.0023857064079493284,
        0.2481984943151474,
        0.010698818601667881,
        0.14236457645893097,
        -0.05599396303296089,
        0.5006904602050781,
        0.3028361201286316,
        -0.07143419235944748,
        0.36231711506843567,
        0.3312574028968811,
        0.06850636750459671,
        0.10495328903198242,
        0.16906771063804626,
        0.13157609105110168,
        -0.17038138210773468,
        0.11450302600860596,
        -0.11529010534286499,
        0.15289956331253052,
        -0.043175701051950455,
        0.1279691457748413,
        0.14356471598148346,
        0.23008304834365845,
        0.11661536991596222,
        0.056306954473257065,
        0.3418058753013611,
        -0.20097821950912476,
        0.11877712607383728,
        -0.12477628141641617,
        0.004345661029219627,
        0.18005143105983734,
        0.27862805128097534,
        0.32431426644325256,
        0.12026769667863846,
        0.10515590757131577,
        0.14301306009292603,
        0.309780478477478
      ],
      [
        0.33862948417663574,
        0.19375669956207275,
        0.1172550842165947,
        0.019500987604260445,
        -0.10739914327859879,
        0.06464819610118866,
        0.12322673946619034,
        -0.12290645390748978,
        0.07597774267196655,
        -0.01814364455640316,
        0.06598114967346191,
        -0.24587830901145935,
        0.12488267570734024,
        -0.07285450398921967,
        -0.1492990404367447,
        0.05269813537597656,
        -0.05790536105632782,
        -0.136185422539711,
        0.18035829067230225,
        0.2922121584415436,
        0.12706460058689117,
        -0.04599281772971153,
        0.17293623089790344,
        0.13953033089637756,
        -0.13153906166553497,
        0.0003975365252699703,
        0.03109205700457096,
        0.2603084146976471,
        0.15175935626029968,
        0.22902438044548035,
        0.1967342346906662,
        0.30543699860572815,
        0.0942273661494255,
        0.30087146162986755,
        0.30578863620758057,
        0.16746142506599426,
        0.042114898562431335,
        -0.14186695218086243,
        -0.07320401817560196,
        -0.13126689195632935,
        0.19437888264656067,
        0.20594941079616547,
        -0.05644196644425392,
        0.030354948714375496,
        0.04938143119215965,
        -0.050208330154418945,
        0.1341821551322937,
        0.2512401044368744,
        0.07504212111234665,
        -0.0767713114619255,
        -0.03674594685435295,
        0.008698017336428165,
        -0.026651225984096527,
        -0.12593768537044525,
        0.20269115269184113,
        0.009256812743842602,
        -0.14434580504894257,
        -0.1130562573671341,
        0.01749553717672825,
        0.0014332405989989638,
        -0.1372823864221573,
        0.06954102963209152,
        -0.05974315106868744,
        0.2182699292898178
      ],
      [
        0.008112538605928421,
        0.03381078690290451,
        -0.030874943360686302,
        0.229563906788826,
        0.01170257106423378,
        0.2624395787715912,
        -0.2201865315437317,
        -0.06659948825836182,
        -0.07897453755140305,
        -0.0955699011683464,
        0.09693969786167145,
        0.05367055907845497,
        -0.024116745218634605,
        0.1492360234260559,
        0.2264818400144577,
        -0.0107273543253541,
        0.1474296599626541,
        0.11866588145494461,
        0.050593264400959015,
        -0.020890139043331146,
        0.15832388401031494,
        0.15397939085960388,
        0.2237924337387085,
        0.05590887740254402,
        0.1906932294368744,
        -0.011869441717863083,
        0.12969398498535156,
        -0.07604733854532242,
        0.05219656601548195,
        0.19517311453819275,
        -0.023492541164159775,
        -0.1061602383852005,
        0.0888047069311142,
        -0.4252353012561798,
        -0.2839532792568207,
        0.06378356367349625,
        0.13754278421401978,
        0.23356199264526367,
        0.2946169078350067,
        0.13300004601478577,
        0.30783388018608093,
        0.17472003400325775,
        0.23702584207057953,
        0.19035190343856812,
        0.1156897023320198,
        -0.11861749738454819,
        0.35172343254089355,
        0.12732519209384918,
        -0.02584998309612274,
        0.41145098209381104,
        0.0059195393696427345,
        0.2588246762752533,
        0.0847759023308754,
        0.13246706128120422,
        -0.0005689720273949206,
        0.06200901046395302,
        0.06209862604737282,
        0.1483132690191269,
        -0.1054118350148201,
        -0.027747925370931625,
        -0.051086023449897766,
        -0.06681033968925476,
        0.12938837707042694,
        0.127004936337471
      ],
      [
        -0.07187563925981522,
        0.1868545264005661,
        0.16901379823684692,
        -0.04915428161621094,
        0.11005672067403793,
        -0.12005431950092316,
        0.1434970498085022,
        -0.13730651140213013,
        0.2002330720424652,
        0.29999396204948425,
        0.036454979330301285,
        0.059435002505779266,
        0.3534752130508423,
        0.07032448798418045,
        0.2397797554731369,
        -0.011045238934457302,
        -0.07210792601108551,
        0.06317726522684097,
        -0.02343086339533329,
        0.05716472491621971,
        0.05484805628657341,
        0.05664188042283058,
        -0.013332386501133442,
        0.053518082946538925,
        0.05599744990468025,
        -0.0068414825946092606,
        -0.12273415923118591,
        0.3030495047569275,
        -0.15384654700756073,
        0.1507224589586258,
        -0.027272844687104225,
        0.22909870743751526,
        0.059823695570230484,
        0.4119320511817932,
        0.4296559691429138,
        -0.1748443990945816,
        0.07861544191837311,
        0.0006775713409297168,
        -0.1248217225074768,
        -0.1352972388267517,
        -0.052108101546764374,
        0.1566479355096817,
        0.01679987832903862,
        0.1931636482477188,
        0.12307031452655792,
        0.024967167526483536,
        -0.06535142660140991,
        0.33123263716697693,
        0.29947546124458313,
        0.01140570268034935,
        0.1946805864572525,
        -0.0068420651368796825,
        0.04785177856683731,
        0.19636736810207367,
        0.06336583942174911,
        -0.02019440196454525,
        0.15542267262935638,
        -0.1560853123664856,
        0.13016876578330994,
        0.1906021535396576,
        -0.11873067170381546,
        -0.006077568046748638,
        -0.014653153717517853,
        0.008500486612319946
      ],
      [
        -0.048544034361839294,
        0.32295072078704834,
        0.16232392191886902,
        0.15200771391391754,
        0.030280325561761856,
        0.222865492105484,
        -0.014420220628380775,
        0.40047523379325867,
        -0.0035274967085570097,
        0.054312001913785934,
        -0.00927427876740694,
        0.4571690559387207,
        0.16935937106609344,
        0.14169123768806458,
        0.3484076261520386,
        0.018944276496767998,
        0.15203846991062164,
        0.08177729696035385,
        -0.1143057569861412,
        -0.3098040819168091,
        0.11689954251050949,
        -0.07689407467842102,
        0.16326934099197388,
        0.14326170086860657,
        0.1818666309118271,
        -0.1367974728345871,
        -0.0883495956659317,
        0.25061365962028503,
        0.2674284279346466,
        0.300420880317688,
        -0.09653864055871964,
        0.11640437692403793,
        0.00946301594376564,
        0.09862679988145828,
        0.06636039167642593,
        0.18002991378307343,
        0.02545342408120632,
        0.3062613308429718,
        0.15414147078990936,
        -0.019357211887836456,
        0.25342413783073425,
        0.19266881048679352,
        0.22783420979976654,
        -0.12166959047317505,
        -0.07340094447135925,
        0.11686969548463821,
        0.09506475180387497,
        -0.1320294886827469,
        0.07843592762947083,
        0.09138379991054535,
        0.19806243479251862,
        0.3046634793281555,
        0.28368109464645386,
        0.21944941580295563,
        0.1015389934182167,
        0.12434408813714981,
        -0.0593317449092865,
        -0.21322810649871826,
        0.02655268833041191,
        -0.010590209625661373,
        0.049398377537727356,
        -0.11565876007080078,
        0.1978641003370285,
        0.013407941907644272
      ],
      [
        0.2524400055408478,
        0.04756282642483711,
        0.09164625406265259,
        0.04586048424243927,
        0.17024441063404083,
        0.02722211927175522,
        -0.2110920548439026,
        -0.23351579904556274,
        0.19563430547714233,
        0.18010298907756805,
        -0.08215600252151489,
        0.09701918065547943,
        -0.03439957648515701,
        0.03650636225938797,
        0.2280532866716385,
        -0.00472727557644248,
        0.016147535294294357,
        0.13975124061107635,
        -0.02525113709270954,
        0.07613494247198105,
        0.014993651770055294,
        0.14795559644699097,
        0.14038699865341187,
        0.1827215850353241,
        0.12548193335533142,
        0.2436964213848114,
        0.2739459276199341,
        -0.09422741830348969,
        -0.04944850876927376,
        -0.40665218234062195,
        0.26316869258880615,
        0.20482458174228668,
        0.14585791528224945,
        0.05468262359499931,
        0.0981028601527214,
        0.17966236174106598,
        0.037839073687791824,
        -0.1299099326133728,
        0.0333256721496582,
        0.34938544034957886,
        0.2052326202392578,
        0.07086992263793945,
        0.14579088985919952,
        0.08409500122070312,
        0.3450070321559906,
        0.39362603425979614,
        -0.27681073546409607,
        -0.05115823820233345,
        0.023005709052085876,
        -0.13106535375118256,
        -0.04563368856906891,
        0.26543375849723816,
        -0.09824473410844803,
        0.056174829602241516,
        0.07571839541196823,
        0.19060522317886353,
        0.08963210880756378,
        0.3173352777957916,
        0.029598060995340347,
        -0.08865015208721161,
        -0.1888861060142517,
        0.22651922702789307,
        -0.031532756984233856,
        -0.030996419489383698
      ],
      [
        0.11295616626739502,
        0.14729319512844086,
        0.20668430626392365,
        -0.12368551641702652,
        0.11467579752206802,
        0.17675556242465973,
        0.26437830924987793,
        0.20314809679985046,
        0.23003153502941132,
        0.12724587321281433,
        0.28216224908828735,
        0.2883280813694,
        0.09089944511651993,
        0.10445006936788559,
        0.35771164298057556,
        0.1101471483707428,
        -0.0652666762471199,
        -0.12493381649255753,
        -0.054291121661663055,
        -0.05975082144141197,
        -0.11320210248231888,
        -0.12103915959596634,
        0.009228409267961979,
        0.16186486184597015,
        0.055118296295404434,
        0.2533787488937378,
        0.2300471067428589,
        -0.013441015034914017,
        0.12803290784358978,
        0.018295088782906532,
        -0.0618695467710495,
        0.2385844588279724,
        0.02069411426782608,
        0.5050972104072571,
        0.33647429943084717,
        0.028370991349220276,
        0.27602964639663696,
        0.24015291035175323,
        0.19020530581474304,
        0.024898432195186615,
        -0.02695251628756523,
        0.19079437851905823,
        0.13445396721363068,
        -0.03513462468981743,
        -0.12665103375911713,
        0.3992953300476074,
        -0.19834809005260468,
        0.017014017328619957,
        0.3675311803817749,
        0.0026401120703667402,
        0.15550170838832855,
        0.12135085463523865,
        0.25989246368408203,
        0.24239994585514069,
        0.15533314645290375,
        0.10517790168523788,
        0.03641703352332115,
        0.14344172179698944,
        0.2962096929550171,
        0.3224363625049591,
        -0.11134346574544907,
        0.15874509513378143,
        0.1978190690279007,
        0.008115699514746666
      ],
      [
        -0.05513430014252663,
        -0.010518616065382957,
        -0.11347651481628418,
        -0.029137589037418365,
        -0.006196204107254744,
        -0.02327037788927555,
        0.08773811161518097,
        0.5856351852416992,
        0.2605902850627899,
        0.13936276733875275,
        0.06912165880203247,
        0.5886514186859131,
        0.12945964932441711,
        0.26909348368644714,
        0.7079848647117615,
        0.16607125103473663,
        0.01119639165699482,
        -0.008721946738660336,
        -0.08558005839586258,
        -0.4514480531215668,
        -0.10864406824111938,
        0.08697457611560822,
        0.03853907063603401,
        -0.02391883358359337,
        -0.1796339452266693,
        0.13390013575553894,
        -0.28400471806526184,
        0.034433621913194656,
        -0.059356093406677246,
        -0.13336162269115448,
        -0.16946879029273987,
        0.20613491535186768,
        -0.04443258047103882,
        0.01918659545481205,
        -0.034493956714868546,
        -0.021943960338830948,
        -0.14401546120643616,
        0.21186216175556183,
        0.11644501984119415,
        -0.03526011481881142,
        -0.11343603581190109,
        -0.17867349088191986,
        0.22261662781238556,
        -0.22181227803230286,
        0.11763375997543335,
        -0.00740895327180624,
        -0.14236979186534882,
        -0.07654424756765366,
        0.08063922077417374,
        -0.10396908968687057,
        0.02556614950299263,
        0.5211746692657471,
        0.007652828004211187,
        0.4269687533378601,
        -0.3299063444137573,
        0.09943423420190811,
        -0.030872618779540062,
        -0.22943703830242157,
        0.07542567700147629,
        -0.2872631847858429,
        0.31748613715171814,
        -0.02151907980442047,
        0.1570192575454712,
        -0.3363223671913147
      ],
      [
        -0.08743970096111298,
        -0.09082921594381332,
        0.04437684267759323,
        -0.10029031336307526,
        0.19355469942092896,
        0.23221656680107117,
        0.009893307462334633,
        0.23428092896938324,
        -0.16723176836967468,
        -0.39639776945114136,
        0.3678242564201355,
        -0.01799810864031315,
        -0.13466152548789978,
        0.20137140154838562,
        0.3942511975765228,
        0.32208532094955444,
        0.10292550176382065,
        0.008994054980576038,
        0.03584590181708336,
        -0.10265588015317917,
        -0.001658325083553791,
        -0.3405454456806183,
        0.016943451017141342,
        0.19306515157222748,
        0.045029956847429276,
        0.1204836517572403,
        0.07349144667387009,
        -0.1451759785413742,
        0.0894831120967865,
        0.052494678646326065,
        -0.14952819049358368,
        -0.09832099825143814,
        0.20335346460342407,
        -0.3818226754665375,
        0.1739071011543274,
        0.07384200394153595,
        0.17678308486938477,
        0.21814537048339844,
        0.12462721019983292,
        0.011687223799526691,
        0.1358717978000641,
        0.00812510959804058,
        -0.1714865267276764,
        0.06358533352613449,
        0.28642696142196655,
        -0.0419396348297596,
        0.07405940443277359,
        0.031143683940172195,
        0.1842566728591919,
        0.051218144595623016,
        -0.07700879871845245,
        0.37321871519088745,
        0.24836944043636322,
        0.16484248638153076,
        0.19273538887500763,
        0.02993805706501007,
        -0.4693918228149414,
        0.014296100474894047,
        0.05037325620651245,
        0.06787736713886261,
        0.1851469874382019,
        -0.025529472157359123,
        0.19824080169200897,
        -0.07496654987335205
      ],
      [
        0.08586878329515457,
        -0.0249293502420187,
        -0.05708843097090721,
        -0.007893593981862068,
        0.24018727242946625,
        0.03099914826452732,
        -0.09046588093042374,
        0.20603594183921814,
        0.12501570582389832,
        -0.11746644228696823,
        0.148396834731102,
        0.12183655053377151,
        -0.06474661827087402,
        0.33750903606414795,
        0.30718350410461426,
        -0.011313086375594139,
        -0.028810711577534676,
        -0.012857564724981785,
        0.05250537022948265,
        -0.24157240986824036,
        -0.08936412632465363,
        -0.028394712135195732,
        0.029496796429157257,
        0.141352578997612,
        -0.027462871745228767,
        0.2560533583164215,
        0.08991343528032303,
        -0.10265765339136124,
        0.13141745328903198,
        -0.14445240795612335,
        0.10340694338083267,
        0.17390137910842896,
        0.09555705636739731,
        0.23468156158924103,
        0.06833936274051666,
        0.047866396605968475,
        0.03040737845003605,
        0.18490977585315704,
        0.016828738152980804,
        0.2709293067455292,
        -0.04783204197883606,
        -0.05955098569393158,
        -0.004340062383562326,
        -0.1364782452583313,
        0.05620565265417099,
        0.3534642457962036,
        -0.09738919138908386,
        -0.06284009665250778,
        0.2023267298936844,
        -0.0535099171102047,
        -0.21834465861320496,
        0.30806437134742737,
        -0.017727401107549667,
        0.17767006158828735,
        -0.05073181167244911,
        0.14727507531642914,
        0.1235884428024292,
        0.21807372570037842,
        0.0604761466383934,
        -0.08330744504928589,
        0.13527008891105652,
        0.32058197259902954,
        0.03349597379565239,
        -0.24810999631881714
      ],
      [
        0.009319843724370003,
        0.07650481164455414,
        0.09685926884412766,
        0.06226761266589165,
        0.17656810581684113,
        0.20559372007846832,
        0.0545128770172596,
        0.13035966455936432,
        0.17791776359081268,
        -0.011006740853190422,
        0.300451397895813,
        0.20731410384178162,
        0.3212602138519287,
        0.15171408653259277,
        0.28555047512054443,
        0.009063531644642353,
        0.158997043967247,
        0.0393982008099556,
        -0.01336450595408678,
        0.1282425820827484,
        0.038498539477586746,
        -0.07879330962896347,
        0.08130376040935516,
        0.03190748766064644,
        0.10963501036167145,
        -0.08185834437608719,
        0.17858068645000458,
        0.022237766534090042,
        0.05548964440822601,
        0.1665286272764206,
        -0.06354106962680817,
        0.14063160121440887,
        -0.07162840664386749,
        0.5691420435905457,
        0.26394951343536377,
        -0.08823149651288986,
        0.24677234888076782,
        0.3783622980117798,
        0.2507741451263428,
        0.0495477095246315,
        -0.039507631212472916,
        0.048550084233284,
        0.06589008122682571,
        -0.13032546639442444,
        0.014119008556008339,
        0.060417938977479935,
        0.11495471000671387,
        0.020438939332962036,
        0.34373539686203003,
        0.0056469920091331005,
        -0.037703607231378555,
        0.3005612790584564,
        0.19034156203269958,
        0.1719769686460495,
        0.01775149255990982,
        -0.08209618926048279,
        -0.023878781124949455,
        0.19440127909183502,
        0.15469057857990265,
        0.2923632860183716,
        0.10319432616233826,
        0.03466125205159187,
        0.23801299929618835,
        0.0867219790816307
      ],
      [
        0.023905225098133087,
        0.02565806172788143,
        0.2230987250804901,
        0.13945497572422028,
        -0.0017735431902110577,
        0.1055104061961174,
        0.11779715865850449,
        -0.24614551663398743,
        -0.02680307812988758,
        -0.06605473160743713,
        0.13273261487483978,
        -0.3375818133354187,
        0.22135253250598907,
        -0.08794613182544708,
        -0.2881806790828705,
        -0.08242539316415787,
        -0.07246843725442886,
        0.12675797939300537,
        0.23476700484752655,
        0.2611851394176483,
        0.04637087509036064,
        0.11849755793809891,
        -0.019797876477241516,
        0.1624629646539688,
        0.13300111889839172,
        0.06715258955955505,
        0.2868184447288513,
        0.034464843571186066,
        -0.051899246871471405,
        0.09677599370479584,
        -0.009229285642504692,
        -0.004134432412683964,
        0.012416409328579903,
        0.24722330272197723,
        0.11770395189523697,
        0.02036748267710209,
        0.3216482400894165,
        0.11684099584817886,
        -0.07421752065420151,
        0.009239915758371353,
        0.13420267403125763,
        0.09285718947649002,
        -0.047046780586242676,
        0.1591179072856903,
        0.12709014117717743,
        -0.007011994253844023,
        0.10109207779169083,
        0.13490067422389984,
        0.12742681801319122,
        0.2558980882167816,
        0.09744758158922195,
        -0.21610985696315765,
        0.13075895607471466,
        -0.2564247250556946,
        0.3038490414619446,
        0.027867954224348068,
        0.16826650500297546,
        0.23612180352210999,
        0.16337944567203522,
        0.29157209396362305,
        -0.08175262808799744,
        0.16923107206821442,
        -0.09632126241922379,
        0.3642117381095886
      ],
      [
        0.051960546523332596,
        0.1580241471529007,
        0.14487755298614502,
        -0.14784103631973267,
        0.13511759042739868,
        0.002998849842697382,
        0.18265727162361145,
        -0.044206276535987854,
        0.14542007446289062,
        0.197275310754776,
        0.2183203399181366,
        -0.08533769845962524,
        0.34550246596336365,
        -0.11203238368034363,
        0.13309605419635773,
        0.13151627779006958,
        -0.10152962803840637,
        -0.00951054971665144,
        0.15975438058376312,
        0.06560150533914566,
        0.07443080097436905,
        -0.2370740920305252,
        0.11939812451601028,
        0.06419674307107925,
        0.22905422747135162,
        -0.00577999884262681,
        0.10382723808288574,
        0.03234567120671272,
        0.027260081842541695,
        0.10093193501234055,
        -0.13252820074558258,
        0.07558481395244598,
        0.13816970586776733,
        0.4389888048171997,
        0.32645705342292786,
        -0.2520439028739929,
        0.19416667520999908,
        0.2344554364681244,
        -0.0061539760790765285,
        -0.09792014956474304,
        -0.19152343273162842,
        -0.04974344000220299,
        -0.31851914525032043,
        0.049742862582206726,
        0.09940481185913086,
        0.09217431396245956,
        -0.004684118088334799,
        0.19068580865859985,
        0.13267752528190613,
        -0.07093052566051483,
        0.06691286712884903,
        0.02930191531777382,
        0.13539624214172363,
        -0.16669835150241852,
        0.1860046237707138,
        -0.052872128784656525,
        0.06979025900363922,
        0.1776452660560608,
        0.30498093366622925,
        0.293080598115921,
        -0.03133842349052429,
        0.07374084740877151,
        0.169196218252182,
        0.12270479649305344
      ],
      [
        0.03236411511898041,
        0.07036790996789932,
        0.22907769680023193,
        -0.3135022819042206,
        0.013236451894044876,
        -0.002854638732969761,
        0.1584053933620453,
        0.2480049580335617,
        -0.06404884159564972,
        0.1590050905942917,
        0.0643683671951294,
        -0.043082356452941895,
        0.11692406982183456,
        0.2030927836894989,
        0.34068232774734497,
        0.023652829229831696,
        0.07411210238933563,
        -0.015712343156337738,
        0.18949443101882935,
        0.02005547657608986,
        0.05536818131804466,
        -0.1841880977153778,
        -0.31813910603523254,
        0.13513238728046417,
        0.14502672851085663,
        -0.2763311564922333,
        0.17855501174926758,
        -0.05154142156243324,
        0.24052372574806213,
        0.13225466012954712,
        0.022944852709770203,
        0.22599753737449646,
        -0.06261714547872543,
        0.5057480335235596,
        0.34328871965408325,
        0.04025239497423172,
        0.04500196874141693,
        0.08893994987010956,
        0.34254637360572815,
        -0.04414002597332001,
        -0.025912605226039886,
        -0.04549885913729668,
        -0.010064647532999516,
        -0.31580352783203125,
        0.25372517108917236,
        0.2710209786891937,
        0.06034224107861519,
        0.15847201645374298,
        0.3131963014602661,
        -0.26289862394332886,
        0.02157955802977085,
        0.3858656585216522,
        0.35319358110427856,
        0.06968344748020172,
        0.03966299816966057,
        0.07106906920671463,
        -0.040326450020074844,
        0.013965442776679993,
        0.2061576098203659,
        0.019901052117347717,
        0.09303908050060272,
        -0.12033525854349136,
        0.1136554405093193,
        -0.023731376975774765
      ],
      [
        0.09891719371080399,
        -0.11397925019264221,
        0.08918651938438416,
        0.026764947921037674,
        -0.16978612542152405,
        0.10603863000869751,
        -0.051965244114398956,
        -0.24053174257278442,
        -0.021582573652267456,
        0.0493997223675251,
        0.10107339173555374,
        -0.2949090600013733,
        -0.08618362247943878,
        0.008741432800889015,
        -0.397647500038147,
        0.10685094445943832,
        0.07024570554494858,
        0.2695850133895874,
        0.27391955256462097,
        0.41349565982818604,
        0.15726062655448914,
        0.24575862288475037,
        0.06858370453119278,
        0.1434093564748764,
        0.20733138918876648,
        -0.1451926976442337,
        0.11888926476240158,
        0.17083223164081573,
        0.05622820556163788,
        0.026037048548460007,
        0.27107879519462585,
        -0.171814426779747,
        0.17474912106990814,
        -0.1848369985818863,
        -0.10452444106340408,
        0.13679347932338715,
        -0.048506516963243484,
        -0.029496563598513603,
        -0.14257726073265076,
        0.18026839196681976,
        0.14773452281951904,
        0.220605731010437,
        -0.009758153930306435,
        0.2591377794742584,
        0.11498427391052246,
        -0.042341526597738266,
        0.2740248739719391,
        0.04796973243355751,
        -0.11280122399330139,
        0.15501070022583008,
        -0.08827917277812958,
        -0.2839282751083374,
        -0.24474866688251495,
        -0.31803983449935913,
        0.1710880845785141,
        -0.025218063965439796,
        0.0878499299287796,
        0.18525885045528412,
        0.13001474738121033,
        0.1621319055557251,
        -0.00047781376633793116,
        0.2473321110010147,
        -0.10017586499452591,
        0.3450092077255249
      ],
      [
        -0.02599264681339264,
        0.14901070296764374,
        -0.00031536168535239995,
        0.13008733093738556,
        0.11726977676153183,
        0.052865128964185715,
        0.06800857931375504,
        0.09087652713060379,
        0.2008054554462433,
        0.20429226756095886,
        0.003760871710255742,
        0.33030107617378235,
        0.0018838042160496116,
        0.16774238646030426,
        0.21915899217128754,
        0.2525714933872223,
        0.1356092244386673,
        0.2199864536523819,
        -0.08713123202323914,
        -0.026252789422869682,
        -0.029300766065716743,
        0.30972957611083984,
        0.20538683235645294,
        0.09936443716287613,
        0.04139259457588196,
        0.09084058552980423,
        -0.20701336860656738,
        0.10062459856271744,
        -0.12150057405233383,
        -0.12993016839027405,
        0.1634518951177597,
        -0.1107502207159996,
        0.19846519827842712,
        -0.1909685581922531,
        -0.07368645817041397,
        0.12689290940761566,
        0.23904624581336975,
        0.18257300555706024,
        -0.1748928427696228,
        0.19012770056724548,
        0.19643153250217438,
        -0.01891523413360119,
        0.1868133246898651,
        0.16781304776668549,
        0.19963957369327545,
        0.1664939969778061,
        0.10226304829120636,
        -0.007315218448638916,
        -0.1225595623254776,
        0.07738055288791656,
        0.22631286084651947,
        0.16153424978256226,
        -0.18625664710998535,
        0.3341376781463623,
        0.009053376503288746,
        0.18321414291858673,
        0.2978993356227875,
        0.184257373213768,
        0.017573336139321327,
        0.19894076883792877,
        0.07542012631893158,
        0.2643832862377167,
        0.091451495885849,
        -0.002750290324911475
      ],
      [
        -0.04240689054131508,
        -0.0315607525408268,
        0.060364894568920135,
        0.10716372728347778,
        0.2625257968902588,
        0.17291179299354553,
        0.08831415325403214,
        -0.05610453709959984,
        0.004892494063824415,
        -0.05598858371376991,
        0.35171279311180115,
        -0.13285821676254272,
        -0.16777460277080536,
        0.1542852222919464,
        -0.05961993336677551,
        0.036582961678504944,
        0.08830428123474121,
        0.15606915950775146,
        0.23137259483337402,
        0.16201677918434143,
        -0.03131940960884094,
        0.19323095679283142,
        0.0891181007027626,
        0.19162936508655548,
        0.2017841339111328,
        0.1642029732465744,
        0.11649969965219498,
        0.0412285216152668,
        0.14179737865924835,
        0.085459865629673,
        -0.004340147599577904,
        -0.022914499044418335,
        0.17365509271621704,
        -0.21874678134918213,
        -0.29580605030059814,
        0.1434706151485443,
        0.13644137978553772,
        0.04843470826745033,
        0.30048254132270813,
        0.2898470163345337,
        0.09494888782501221,
        0.20823834836483002,
        0.28890904784202576,
        -0.019613981246948242,
        0.21277055144309998,
        -0.012999080121517181,
        0.1485888808965683,
        -0.12600301206111908,
        -0.12404728680849075,
        0.3253997266292572,
        0.10439728945493698,
        0.21661736071109772,
        -0.09995216131210327,
        0.05684620141983032,
        0.1839486062526703,
        0.3036109209060669,
        -0.04147275909781456,
        0.3256188929080963,
        -0.1678132265806198,
        -0.06474363803863525,
        0.06900105625391006,
        0.2696758508682251,
        0.04913020133972168,
        0.09884391725063324
      ],
      [
        0.13621237874031067,
        0.0441034696996212,
        0.305851548910141,
        0.040722399950027466,
        0.031007785350084305,
        -0.016813023015856743,
        0.17639614641666412,
        -0.4121207594871521,
        0.01663099229335785,
        0.1681886911392212,
        -0.02548963949084282,
        0.08512943238019943,
        -0.012371581047773361,
        0.1107850968837738,
        0.1500169187784195,
        -0.14235948026180267,
        0.09967323392629623,
        0.24117372930049896,
        0.12944160401821136,
        0.1577242612838745,
        0.019543755799531937,
        0.008949578739702702,
        0.10365176200866699,
        0.10752826929092407,
        0.02505389228463173,
        0.14367066323757172,
        0.22521555423736572,
        0.07001326233148575,
        0.13557711243629456,
        -0.09152838587760925,
        0.18987420201301575,
        0.2732519507408142,
        0.07773329317569733,
        0.6704436540603638,
        0.09548430889844894,
        0.010768422856926918,
        -0.1309540718793869,
        -0.018325980752706528,
        -0.0663420557975769,
        -0.04024124518036842,
        -0.03092457912862301,
        -0.08027637004852295,
        0.032168738543987274,
        -0.00844581052660942,
        0.14896874129772186,
        0.31479114294052124,
        -0.26116570830345154,
        -0.06691209971904755,
        0.23780742287635803,
        -0.19879795610904694,
        0.033589307218790054,
        0.07394541054964066,
        0.10741110891103745,
        0.1182190477848053,
        -0.04913095384836197,
        -0.1808423399925232,
        0.017193090170621872,
        -0.19079387187957764,
        -0.10256526619195938,
        -0.07590173929929733,
        -0.26261764764785767,
        0.20151428878307343,
        -0.016154935583472252,
        0.08374888449907303
      ],
      [
        0.09081669896841049,
        0.020938001573085785,
        0.21826857328414917,
        0.04406976327300072,
        -0.01400162186473608,
        0.22923126816749573,
        0.18747416138648987,
        -0.14021429419517517,
        -0.07163115590810776,
        -0.014619853347539902,
        0.025201842188835144,
        -0.3416494131088257,
        0.08986804634332657,
        0.14024615287780762,
        -0.17947520315647125,
        0.01628398708999157,
        -0.02939927764236927,
        0.020987417548894882,
        0.22341910004615784,
        0.20084673166275024,
        0.20363590121269226,
        -0.035550057888031006,
        0.11431921273469925,
        0.112619549036026,
        0.07525471597909927,
        0.05458909273147583,
        0.11576687544584274,
        0.01206726860255003,
        0.2086876481771469,
        0.15914933383464813,
        0.15551365911960602,
        0.023771321401000023,
        -0.11943090707063675,
        0.3890506327152252,
        0.30902329087257385,
        -0.053275786340236664,
        0.17709901928901672,
        0.16891944408416748,
        0.0621095672249794,
        0.0723939910531044,
        0.14256666600704193,
        0.23461361229419708,
        -0.11441695690155029,
        0.13228334486484528,
        -0.051693569868803024,
        -0.02658872678875923,
        0.038932155817747116,
        0.21415849030017853,
        0.10887002944946289,
        0.029758037999272346,
        0.01318445336073637,
        -0.15649019181728363,
        0.1942157745361328,
        -0.0871654748916626,
        0.2738029360771179,
        0.014283648692071438,
        0.07508133351802826,
        0.2748996615409851,
        0.142432302236557,
        0.13665732741355896,
        -0.1356421262025833,
        0.09351880103349686,
        -0.0023315974976867437,
        0.3548409938812256
      ],
      [
        0.23079177737236023,
        -0.02842201665043831,
        0.11894534528255463,
        -0.1607799082994461,
        0.21410693228244781,
        -0.06420954316854477,
        0.528812050819397,
        -0.49324125051498413,
        0.1222369447350502,
        0.4638429582118988,
        -0.07531073689460754,
        -0.16118969023227692,
        0.08735190331935883,
        -0.28261882066726685,
        0.10238681733608246,
        -0.31494712829589844,
        -0.17509359121322632,
        -0.015014427714049816,
        0.043251682072877884,
        0.134852796792984,
        -0.013534275814890862,
        -0.33236637711524963,
        -0.22556157410144806,
        -0.006071343086659908,
        0.30400025844573975,
        -0.032645534723997116,
        0.10491278022527695,
        0.054766662418842316,
        0.05429055541753769,
        -0.08869859576225281,
        0.050158675760030746,
        0.24826115369796753,
        -0.20028550922870636,
        1.315953016281128,
        0.5824913382530212,
