{
  "layer_0": {
    "weight": [
      [
        -0.059699591249227524,
        -0.07201935350894928,
        0.11265499889850616,
        -0.30328914523124695,
        -0.2694268524646759,
        0.27640068531036377,
        0.27579793334007263,
        -0.5356146693229675,
        -0.0010878347093239427,
        0.444823682308197,
        -0.39792385697364807,
        0.03723166882991791,
        0.5083296895027161,
        -0.12114518880844116,
        -0.3958759903907776,
        0.08038288354873657,
        0.13733188807964325
      ],
      [
        -0.008547468110918999,
        -0.06277530640363693,
        -0.09230689704418182,
        0.1859695017337799,
        0.239540234208107,
        0.26602092385292053,
        0.3562283515930176,
        0.2824980616569519,
        -0.3851066827774048,
        -0.11729642003774643,
        0.48763608932495117,
        0.039525020867586136,
        -0.18939374387264252,
        0.0064027803018689156,
        -0.13769638538360596,
        -0.16849832236766815,
        0.22385767102241516
      ],
      [
        0.32104259729385376,
        0.34007278084754944,
        -0.1158536821603775,
        -0.27905210852622986,
        -0.07874365150928497,
        -0.1179116740822792,
        -0.14881549775600433,
        -0.01974516548216343,
        -0.4688933789730072,
        -0.4525301158428192,
        0.48800864815711975,
        -0.06830471754074097,
        -0.18154220283031464,
        0.31547895073890686,
        0.25005102157592773,
        0.1168656051158905,
        -0.03560392186045647
      ],
      [
        0.029742835089564323,
        0.3730119466781616,
        -0.012480021454393864,
        0.2803419828414917,
        0.153018981218338,
        -0.026559820398688316,
        0.3432880938053131,
        0.5542459487915039,
        0.34874773025512695,
        0.21875840425491333,
        0.30013784766197205,
        0.33950451016426086,
        0.03952660411596298,
        0.29341933131217957,
        0.4083336889743805,
        0.052434395998716354,
        0.010010020807385445
      ],
      [
        -0.023781197145581245,
        0.5045889019966125,
        -0.15457598865032196,
        0.24601462483406067,
        0.09196247160434723,
        -0.4855527877807617,
        -0.001998375402763486,
        -0.06280963122844696,
        -0.13612964749336243,
        -0.21099434792995453,
        -0.2781634032726288,
        -0.24407809972763062,
        0.15641523897647858,
        0.33342820405960083,
        0.058357663452625275,
        -0.11380849033594131,
        0.09995659440755844
      ],
      [
        -0.08281637728214264,
        -0.11567579209804535,
        0.19628217816352844,
        -0.4687846302986145,
        0.07719314843416214,
        0.5777966976165771,
        0.3837105631828308,
        -0.05105492100119591,
        -0.03085198812186718,
        -0.007481668144464493,
        0.30441349744796753,
        0.16167554259300232,
        0.07378634065389633,
        0.02489679865539074,
        -0.4380249083042145,
        0.28080877661705017,
        0.18918845057487488
      ],
      [
        0.17393648624420166,
        -0.33020731806755066,
        0.09756428748369217,
        -0.23551544547080994,
        -0.15041330456733704,
        -0.21321894228458405,
        0.48769688606262207,
        0.19652581214904785,
        -0.4225482940673828,
        -0.3009742796421051,
        0.38505059480667114,
        0.11263095587491989,
        -0.5179451107978821,
        0.15439659357070923,
        0.2335735708475113,
        0.1294066458940506,
        0.039134252816438675
      ],
      [
        -0.03405024856328964,
        0.44658011198043823,
        0.028141187503933907,
        -0.49082475900650024,
        -0.30527374148368835,
        -0.008425889536738396,
        -0.08619563281536102,
        -0.4547862410545349,
        0.058624010533094406,
        -0.06806116551160812,
        -0.20911389589309692,
        0.18520982563495636,
        0.24590179324150085,
        0.23637713491916656,
        -0.0643409788608551,
        0.05085165798664093,
        -0.02757696434855461
      ],
      [
        -0.050020381808280945,
        0.4018394351005554,
        -0.28591471910476685,
        0.12901020050048828,
        -0.3376333713531494,
        0.289217084646225,
        0.07729389518499374,
        -0.08080285042524338,
        -0.03615767881274223,
        0.25486811995506287,
        0.04801475256681442,
        0.3287849724292755,
        0.37701836228370667,
        0.27012479305267334,
        0.06561384350061417,
        0.3099404573440552,
        -0.3039819002151489
      ],
      [
        0.2084941864013672,
        -0.388666033744812,
        0.10811738669872284,
        0.018811900168657303,
        -0.23100779950618744,
        -0.14184615015983582,
        -0.12066572159528732,
        0.11111108958721161,
        -0.058597031980752945,
        -0.30193886160850525,
        -0.24740007519721985,
        -0.373146653175354,
        -0.4319566488265991,
        -0.134873166680336,
        -0.21890680491924286,
        -0.2949657142162323,
        0.11746099591255188
      ],
      [
        -0.47031527757644653,
        -0.1354791224002838,
        -0.048625510185956955,
        0.07228226959705353,
        0.00436055101454258,
        0.31627166271209717,
        0.224965900182724,
        -0.19587719440460205,
        -0.4845672845840454,
        -0.13570792973041534,
        0.5406484603881836,
        0.04480182006955147,
        -0.24179203808307648,
        -0.20048116147518158,
        0.15317250788211823,
        0.2649560272693634,
        -0.3780425488948822
      ],
      [
        0.0668543353676796,
        0.34352973103523254,
        -0.2001427710056305,
        -0.4604916274547577,
        -0.34792858362197876,
        -0.3916268050670624,
        -0.07737085968255997,
        -0.33836129307746887,
        -0.3860323131084442,
        -0.079957976937294,
        -0.2389572709798813,
        0.2094738930463791,
        0.18012818694114685,
        0.22032028436660767,
        0.03295162320137024,
        0.10383962094783783,
        0.1758427768945694
      ],
      [
        0.29767081141471863,
        0.42516717314720154,
        0.0941806435585022,
        0.234004408121109,
        -0.19331160187721252,
        0.09335912764072418,
        0.2721056044101715,
        0.051083847880363464,
        -0.3671790063381195,
        -0.31445440649986267,
        0.22156639397144318,
        0.18221814930438995,
        -0.2805388271808624,
        0.13711877167224884,
        0.3159075081348419,
        0.14103086292743683,
        -0.12443080544471741
      ],
      [
        -0.3562951982021332,
        -0.29664069414138794,
        0.0888306051492691,
        0.05692215636372566,
        0.05732501298189163,
        0.037191588431596756,
        0.08152781426906586,
        -0.10985203832387924,
        0.4698338508605957,
        0.2568773031234741,
        -0.3231475055217743,
        -0.057704728096723557,
        0.18864096701145172,
        -0.2048186957836151,
        -0.3375014662742615,
        -0.08155651390552521,
        0.34167763590812683
      ],
      [
        -0.14479222893714905,
        -0.3397023379802704,
        -0.17794284224510193,
        0.16248980164527893,
        0.07490482926368713,
        0.2646051049232483,
        0.07861720770597458,
        -0.001106962445192039,
        0.5525593161582947,
        0.283852756023407,
        -0.39631304144859314,
        0.10791677981615067,
        0.20466932654380798,
        0.017264502122998238,
        -0.45798346400260925,
        -0.22769397497177124,
        0.39853590726852417
      ],
      [
        0.26735275983810425,
        0.4816107451915741,
        -0.06040017679333687,
        -0.06802841275930405,
        0.3476143777370453,
        -0.3024693429470062,
        -0.2629421651363373,
        0.3173620104789734,
        -0.3608531355857849,
        -0.29872071743011475,
        -0.18953724205493927,
        -0.2357354611158371,
        -0.512169599533081,
        -0.2109804004430771,
        -0.2542196214199066,
        -0.3149661421775818,
        -0.2722196877002716
      ],
      [
        0.023838795721530914,
        0.23946848511695862,
        -0.21907004714012146,
        0.16444143652915955,
        -0.14386716485023499,
        0.39131271839141846,
        0.009390142746269703,
        -0.4400729835033417,
        0.3466797471046448,
        0.5023163557052612,
        -0.4839138388633728,
        -0.10549573600292206,
        0.16224011778831482,
        -0.1385641247034073,
        -0.36713823676109314,
        0.3768095076084137,
        -0.27047958970069885
      ],
      [
        -0.062055815011262894,
        -0.7601936459541321,
        0.01685389131307602,
        -0.12220833450555801,
        0.0896497368812561,
        -0.04545232281088829,
        0.02358176000416279,
        -0.15884214639663696,
        0.20475009083747864,
        -0.10415316373109818,
        -0.2849631607532501,
        -0.1893007457256317,
        0.3167681097984314,
        -0.007375781424343586,
        -0.0066429427824914455,
        -0.16718292236328125,
        0.21804657578468323
      ],
      [
        0.1445707380771637,
        -0.15866267681121826,
        0.07740453630685806,
        -0.5879780650138855,
        -0.4312238097190857,
        -0.37382060289382935,
        -0.11689716577529907,
        -0.12245013564825058,
        -0.030446594581007957,
        -0.25074103474617004,
        -0.22022634744644165,
        -0.0677584707736969,
        0.4503515362739563,
        0.07987681776285172,
        -0.03243763744831085,
        0.019997987896203995,
        0.11766862124204636
      ],
      [
        0.18174251914024353,
        -0.7126548886299133,
        0.17011116445064545,
        0.18936079740524292,
        -0.09864551573991776,
        -0.21833506226539612,
        0.11728579550981522,
        0.18626047670841217,
        0.3032210171222687,
        0.19986194372177124,
        0.22277136147022247,
        -0.07608088105916977,
        -0.2493765950202942,
        -0.04513511806726456,
        0.1639159470796585,
        -0.3535309433937073,
        0.32000070810317993
      ],
      [
        -0.042664337903261185,
        -0.6063559651374817,
        0.22249606251716614,
        0.146145299077034,
        -0.30046987533569336,
        -0.028849778696894646,
        0.12613530457019806,
        0.1596294492483139,
        0.2059398889541626,
        0.10656800121068954,
        0.28340116143226624,
        0.2738419771194458,
        0.1467113047838211,
        0.017703453078866005,
        0.029461737722158432,
        0.022673822939395905,
        0.08482655137777328
      ],
      [
        -0.13475674390792847,
        -0.8975128531455994,
        0.21531592309474945,
        -0.27787625789642334,
        -0.24213950335979462,
        -0.02835654281079769,
        -0.2643934190273285,
        0.2380646914243698,
        0.03827759250998497,
        -0.23810434341430664,
        -0.14463317394256592,
        0.04765234887599945,
        -0.020345941185951233,
        0.3055773973464966,
        0.21245017647743225,
        -0.17772330343723297,
        0.02320895902812481
      ],
      [
        0.20495136082172394,
        -0.23311449587345123,
        0.10316260904073715,
        0.30675217509269714,
        -0.07779181748628616,
        -0.09353670477867126,
        0.32434749603271484,
        0.2711889445781708,
        -0.5522946715354919,
        -0.17203915119171143,
        0.5329161286354065,
        -0.012996657751500607,
        -0.23720420897006989,
        -0.25717923045158386,
        0.23206506669521332,
        -0.31587424874305725,
        0.15029801428318024
      ],
      [
        0.09801902621984482,
        0.43286895751953125,
        -0.19869644939899445,
        0.26474666595458984,
        0.05001599341630936,
        0.10889327526092529,
        -0.070834219455719,
        0.3863426744937897,
        0.24075210094451904,
        0.05732651427388191,
        -0.0469224713742733,
        -0.2723418176174164,
        -0.21933285892009735,
        -0.09441088885068893,
        0.2604255974292755,
        -0.024979114532470703,
        0.08545762300491333
      ],
      [
        0.15880854427814484,
        -0.19778330624103546,
        -0.17675943672657013,
        0.3030429184436798,
        0.1092158630490303,
        -0.14534790813922882,
        0.30470535159111023,
        0.32906731963157654,
        -0.07130102068185806,
        0.3784114718437195,
        0.39224788546562195,
        0.20649564266204834,
        -0.03387697786092758,
        0.21350185573101044,
        0.3238181173801422,
        -0.2029159963130951,
        0.19097177684307098
      ],
      [
        -0.08199884742498398,
        0.6756046414375305,
        -0.24764537811279297,
        0.18295671045780182,
        0.07738382369279861,
        -0.11756470799446106,
        0.3227216303348541,
        0.32338565587997437,
        0.13135090470314026,
        0.14749860763549805,
        -0.031825125217437744,
        -0.1530168056488037,
        0.06481347233057022,
        0.22586911916732788,
        0.1135251596570015,
        -0.05165250599384308,
        -0.05264119803905487
      ],
      [
        0.06076723709702492,
        -0.5048816204071045,
        -0.027029864490032196,
        0.10101828724145889,
        0.21338693797588348,
        -0.33297571539878845,
        0.146622896194458,
        0.3978414237499237,
        0.12643839418888092,
        0.09141698479652405,
        0.41761037707328796,
        0.07126232236623764,
        -0.4647168517112732,
        -0.16841751337051392,
        -0.20425792038440704,
        -0.2630246579647064,
        0.273363322019577
      ],
      [
        0.018012791872024536,
        0.010568452998995781,
        -0.07411674410104752,
        -0.4744669198989868,
        0.16895683109760284,
        -0.36285972595214844,
        -0.12720628082752228,
        0.05874556675553322,
        -0.1298760622739792,
        0.09054519981145859,
        -0.19064989686012268,
        -0.004320360720157623,
        0.13633178174495697,
        0.17194199562072754,
        0.33812469244003296,
        0.03430001810193062,
        -0.1877470165491104
      ],
      [
        -0.3507584035396576,
        -0.9406764507293701,
        0.0315031036734581,
        -0.1524207592010498,
        0.04160023480653763,
        -0.3785834312438965,
        -0.1516735851764679,
        0.1371181756258011,
        -0.15213842689990997,
        0.03639457747340202,
        0.016407905146479607,
        -0.2710669934749603,
        -0.08892642706632614,
        0.2182384878396988,
        0.1744053065776825,
        0.02910141460597515,
        0.10240635275840759
      ],
      [
        -0.08313304930925369,
        0.07889780402183533,
        0.031691502779722214,
        0.004032089840620756,
        -0.14183183014392853,
        0.5613152980804443,
        0.1232316642999649,
        -0.5461258292198181,
        0.27335020899772644,
        0.5109249949455261,
        -0.5390799045562744,
        -0.31523948907852173,
        0.3658108711242676,
        0.03534196317195892,
        -0.3982515335083008,
        0.3819444179534912,
        0.0671502873301506
      ],
      [
        -0.09341078251600266,
        -0.0041819242760539055,
        -0.14622972905635834,
        0.09410072863101959,
        -0.28017911314964294,
        0.3196229934692383,
        0.012655284255743027,
        -0.24821850657463074,
        -0.3903096318244934,
        0.06673859804868698,
        -0.1615949273109436,
        0.135518878698349,
        -0.06632231175899506,
        -0.1962839812040329,
        -0.23395316302776337,
        -0.0088278166949749,
        0.05746685341000557
      ],
      [
        -0.12583041191101074,
        0.1485486775636673,
        0.1890217363834381,
        -0.5110852122306824,
        -0.13466539978981018,
        0.09926282614469528,
        -0.4056715667247772,
        -0.28011712431907654,
        0.005530134309083223,
        -0.42189422249794006,
        -0.18959763646125793,
        -0.26611730456352234,
        0.24632489681243896,
        -0.27184996008872986,
        -0.30149734020233154,
        0.1218796893954277,
        0.10412383824586868
      ],
      [
        0.08639535307884216,
        0.10220232605934143,
        -0.07909995317459106,
        -0.30793750286102295,
        -0.16668258607387543,
        0.4778621792793274,
        0.4538421332836151,
        -0.2798083424568176,
        -0.07050711661577225,
        0.38134413957595825,
        -0.0270440224558115,
        0.07224495708942413,
        -0.08111968636512756,
        -0.16411982476711273,
        -0.10106460750102997,
        0.13008618354797363,
        0.20397980511188507
      ],
      [
        0.06686624884605408,
        0.025434082373976707,
        0.03276044502854347,
        -0.6024017333984375,
        -0.3030727505683899,
        0.445687860250473,
        0.11908680945634842,
        -0.514552116394043,
        -0.07623674720525742,
        0.13050477206707,
        -0.4216199219226837,
        0.3703888952732086,
        0.460409551858902,
        -0.3959653973579407,
        -0.28775274753570557,
        0.25887173414230347,
        0.31015509366989136
      ],
      [
        0.06651293486356735,
        -0.4728441834449768,
        -0.0944342091679573,
        -0.029544703662395477,
        -0.3633732199668884,
        0.08008475601673126,
        0.2951545715332031,
        -0.2545717656612396,
        0.1051049456000328,
        0.47325390577316284,
        -0.0054711527191102505,
        0.38131773471832275,
        0.4653330147266388,
        0.1545621007680893,
        0.11162971705198288,
        0.06480109691619873,
        0.13088923692703247
      ],
      [
        0.08540219813585281,
        0.5105741024017334,
        -0.2781335711479187,
        -0.07885192334651947,
        -0.13246232271194458,
        -0.12349676340818405,
        0.013907134532928467,
        0.18290869891643524,
        -0.1963564157485962,
        -0.17088016867637634,
        -0.2525913417339325,
        -0.4187275767326355,
        -0.27666521072387695,
        -0.1847609281539917,
        -0.05371294915676117,
        -0.04475279897451401,
        0.25850048661231995
      ],
      [
        0.13810081779956818,
        -0.23237311840057373,
        -0.09295205771923065,
        -0.5561476349830627,
        0.3460655212402344,
        0.07470407336950302,
        0.1055094376206398,
        0.03920944407582283,
        0.16385357081890106,
        -0.14229275286197662,
        -0.06565819680690765,
        -0.08347487449645996,
        -0.1267859935760498,
        -0.1381049007177353,
        0.03868512436747551,
        -0.3402611017227173,
        -0.03230970352888107
      ],
      [
        0.34602871537208557,
        0.6250496506690979,
        -0.027085138484835625,
        0.34792181849479675,
        0.2620842754840851,
        0.1894555538892746,
        -0.07040147483348846,
        0.10428963601589203,
        0.23441864550113678,
        0.22953589260578156,
        -0.16715580224990845,
        0.09332919120788574,
        0.13941006362438202,
        0.13672879338264465,
        -0.004943696316331625,
        -0.07477153092622757,
        0.07713314145803452
      ],
      [
        0.03299112990498543,
        -0.4617975950241089,
        -0.0821584016084671,
        -0.41153013706207275,
        -0.039594732224941254,
        -0.2858457565307617,
        -0.3107646107673645,
        -0.16893485188484192,
        -0.4553365409374237,
        -0.030026979744434357,
        -0.017509818077087402,
        0.04529577121138573,
        -0.062234342098236084,
        0.5433260798454285,
        0.35266992449760437,
        0.050942398607730865,
        -0.40630200505256653
      ],
      [
        0.04502900317311287,
        -0.338268518447876,
        0.0316096693277359,
        -0.4117526412010193,
        -0.21791233122348785,
        0.4290981590747833,
        0.06819091737270355,
        -0.2784428000450134,
        -0.15720711648464203,
        0.40370985865592957,
        0.12129232287406921,
        -0.011984259821474552,
        -0.08253176510334015,
        -0.27981361746788025,
        -0.2794213593006134,
        0.16956298053264618,
        0.05297806113958359
      ],
      [
        0.02188084088265896,
        -0.0766570195555687,
        -0.08181193470954895,
        0.052437156438827515,
        -0.13580626249313354,
        0.3725786507129669,
        0.38319188356399536,
        -0.4561719298362732,
        -0.17952722311019897,
        -0.12691041827201843,
        -0.223105788230896,
        0.08437200635671616,
        0.358675092458725,
        -0.10278763622045517,
        -0.13923686742782593,
        0.170199453830719,
        -0.13424769043922424
      ],
      [
        -0.24601224064826965,
        -0.6252642869949341,
        0.07499776035547256,
        -0.07422871142625809,
        -0.004288047552108765,
        -0.14017978310585022,
        -0.3258601129055023,
        0.3162343204021454,
        0.1401478350162506,
        -0.2821666896343231,
        -0.06597454845905304,
        0.19591498374938965,
        0.5106589198112488,
        0.10728871822357178,
        -0.0742311105132103,
        -0.08546159416437149,
        0.23402222990989685
      ],
      [
        -0.21006634831428528,
        -0.36226943135261536,
        0.21398043632507324,
        -0.08238725364208221,
        0.15252448618412018,
        -0.11686798930168152,
        0.1956649273633957,
        -0.14103394746780396,
        0.18935003876686096,
        0.1547204703092575,
        0.29646986722946167,
        0.21805056929588318,
        0.41886967420578003,
        0.24445846676826477,
        -0.13222961127758026,
        0.18488077819347382,
        -0.19975590705871582
      ],
      [
        0.13322247564792633,
        0.4661426544189453,
        -0.2339668720960617,
        0.25688233971595764,
        0.025620510801672935,
        -0.5041910409927368,
        -0.2016782909631729,
        0.4068920314311981,
        0.24741874635219574,
        -0.3222404718399048,
        -0.06584431976079941,
        0.05940801277756691,
        -0.132639080286026,
        0.31005915999412537,
        -0.06776899844408035,
        0.0733480155467987,
        -0.11753525584936142
      ],
      [
        0.17276696860790253,
        0.7615105509757996,
        0.00016764865722507238,
        -0.27002182602882385,
        -0.0545392706990242,
        0.1446644514799118,
        0.13690440356731415,
        -0.2215917706489563,
        0.2199503779411316,
        0.370900422334671,
        0.09063667058944702,
        0.35567033290863037,
        -0.06272388994693756,
        -0.37417006492614746,
        -0.15231113135814667,
        -0.2645162045955658,
        0.08073389530181885
      ],
      [
        -0.15348424017429352,
        -1.0111504793167114,
        0.16120924055576324,
        -0.08593696355819702,
        0.05492134019732475,
        -0.20088787376880646,
        -0.020539790391921997,
        -0.1257772296667099,
        0.03323270380496979,
        -0.07189003378152847,
        0.20156195759773254,
        -0.08752372860908508,
        -0.03099397011101246,
        0.029456118121743202,
        -0.051282502710819244,
        0.10203930735588074,
        0.15628139674663544
      ],
      [
        0.08127528429031372,
        -0.03275030106306076,
        -0.18282422423362732,
        0.22427314519882202,
        -0.2596578299999237,
        -0.4169813394546509,
        -0.16005393862724304,
        0.009902995079755783,
        -0.2567611038684845,
        -0.37083378434181213,
        -0.09260548651218414,
        -0.289812833070755,
        -0.25261467695236206,
        0.20849089324474335,
        0.024607695639133453,
        -0.19310881197452545,
        -0.05586263909935951
      ],
      [
        0.1834363490343094,
        0.3237464725971222,
        -0.11505110561847687,
        0.4114587903022766,
        0.019105972722172737,
        0.30834925174713135,
        0.5451462864875793,
        0.16495339572429657,
        0.3854019045829773,
        -0.08635793626308441,
        -0.21247945725917816,
        -0.05365273728966713,
        -0.12450450658798218,
        -0.2053179293870926,
        -0.35756245255470276,
        0.010753940790891647,
        0.2744681239128113
      ],
      [
        -0.049576349556446075,
        0.3061470091342926,
        -0.10768667608499527,
        -0.13880272209644318,
        -0.21243314445018768,
        0.23772303760051727,
        0.40447893738746643,
        -0.34405049681663513,
        0.27785176038742065,
        0.2521081566810608,
        -0.04077526181936264,
        0.05540255084633827,
        0.3355277478694916,
        -0.3765416443347931,
        -0.3428414762020111,
        0.4053117632865906,
        0.16070351004600525
      ],
      [
        0.08065074682235718,
        -0.02000509761273861,
        0.06777799129486084,
        0.16252033412456512,
        0.03472341224551201,
        -0.08730839937925339,
        -0.01410919800400734,
        0.2793026268482208,
        0.3097691833972931,
        -0.07508932054042816,
        0.28028643131256104,
        -0.17862668633460999,
        0.18336418271064758,
        0.3805791437625885,
        0.28494173288345337,
        0.1203753873705864,
        -0.0989912822842598
      ],
      [
        0.08602359890937805,
        0.1693471521139145,
        0.029422443360090256,
        -0.3082190454006195,
        -0.20152170956134796,
        0.0247154850512743,
        -0.1999959498643875,
        -0.29298698902130127,
        -0.16557209193706512,
        0.11761119216680527,
        -0.2118542343378067,
        -0.225626140832901,
        0.47483357787132263,
        0.024468766525387764,
        0.005038337782025337,
        0.4170176684856415,
        0.17663492262363434
      ],
      [
        0.070811927318573,
        0.013550685718655586,
        -0.07873209565877914,
        -0.1492980718612671,
        -0.21861621737480164,
        0.4398677945137024,
        0.28936782479286194,
        -0.6899831891059875,
        0.17784664034843445,
        0.30336740612983704,
        -0.549811840057373,
        0.04665881767868996,
        0.3243444859981537,
        -0.05227901041507721,
        -0.12370389699935913,
        0.04325631260871887,
        0.19427849352359772
      ],
      [
        -0.29014018177986145,
        -0.6663110256195068,
        -0.09626712650060654,
        -0.1840658336877823,
        -0.19133494794368744,
        -0.0015197033062577248,
        0.029138008132576942,
        -0.24215522408485413,
        -0.3496933877468109,
        -0.37268635630607605,
        0.11618687212467194,
        -0.006205250974744558,
        -0.16556724905967712,
        -0.061524681746959686,
        -0.058530282229185104,
        0.13428962230682373,
        -0.0319136381149292
      ],
      [
        -0.14125113189220428,
        -0.794248104095459,
        -0.04570353776216507,
        0.13382132351398468,
        0.12317287176847458,
        0.056395530700683594,
        -0.09002619981765747,
        -0.02864118665456772,
        0.17390760779380798,
        -0.1437445431947708,
        0.23837856948375702,
        -0.2526598870754242,
        0.026692811399698257,
        -0.0008449201704934239,
        0.10609976202249527,
        -0.10345879197120667,
        0.07951908558607101
      ],
      [
        0.4137115478515625,
        -0.5898371338844299,
        0.08832141011953354,
        0.022067181766033173,
        -0.17242498695850372,
        -0.40383946895599365,
        -0.37030693888664246,
        0.3212543725967407,
        0.31285250186920166,
        -0.24711686372756958,
        -0.23037348687648773,
        0.09630455821752548,
        -0.08940047025680542,
        0.11141499876976013,
        0.19380205869674683,
        -0.1848367601633072,
        -0.2561793625354767
      ],
      [
        0.28021469712257385,
        0.31926149129867554,
        0.1933310180902481,
        0.20251943171024323,
        0.0789322704076767,
        -0.2105041742324829,
        -0.2918992340564728,
        0.2351822853088379,
        0.3108222782611847,
        -0.08391064405441284,
        -0.4742404818534851,
        -0.1255502998828888,
        0.6583896279335022,
        0.19943983852863312,
        -0.3758099675178528,
        -0.3068343698978424,
        0.2871307134628296
      ],
      [
        -0.34220466017723083,
        0.034527894109487534,
        -0.3217505216598511,
        0.10028467327356339,
        -0.11509325355291367,
        0.17143741250038147,
        -0.007673816289752722,
        -0.4259514808654785,
        0.3312288820743561,
        -0.028701482340693474,
        -0.022255664691329002,
        -0.25704047083854675,
        0.3865427076816559,
        0.18872854113578796,
        -0.23270510137081146,
        -0.0678023248910904,
        -0.1271081417798996
      ],
      [
        0.07942837476730347,
        0.5144876837730408,
        -0.0505768246948719,
        0.361279159784317,
        -0.23593346774578094,
        -0.06293625384569168,
        -0.02048299089074135,
        0.08133344352245331,
        0.0632898360490799,
        0.23911751806735992,
        -0.06967507302761078,
        0.040267352014780045,
        0.19602222740650177,
        -0.18321514129638672,
        -0.1513087898492813,
        -0.3085584044456482,
        0.31919431686401367
      ],
      [
        0.17354361712932587,
        -0.19500724971294403,
        -0.11738723516464233,
        0.025818822905421257,
        -0.245113343000412,
        -0.31195080280303955,
        -0.07642927020788193,
        0.12639416754245758,
        -0.11149759590625763,
        -0.03855361044406891,
        0.023452363908290863,
        0.25110551714897156,
        -0.06510904431343079,
        0.08968894183635712,
        0.2840871214866638,
        0.16902296245098114,
        0.3578426241874695
      ],
      [
        0.0025758217088878155,
        -0.32255953550338745,
        -0.04054729640483856,
        -0.1931353360414505,
        -0.18312256038188934,
        -0.026003364473581314,
        -0.13074366748332977,
        -0.5805690288543701,
        -0.17929163575172424,
        -0.2895708382129669,
        -0.25874409079551697,
        -0.41359686851501465,
        -0.007202251348644495,
        -0.38954445719718933,
        -0.3065856695175171,
        -0.023489229381084442,
        -0.19212636351585388
      ],
      [
        -0.014025002717971802,
        0.3937574028968811,
        0.15639826655387878,
        -0.5302298069000244,
        0.36791718006134033,
        -0.15241646766662598,
        -0.07409043610095978,
        -0.17667345702648163,
        -0.29727795720100403,
        -0.0031392911914736032,
        -0.24666431546211243,
        -0.20153062045574188,
        -0.07395204901695251,
        0.005792462266981602,
        -0.2969922125339508,
        -0.059832070022821426,
        0.06708729267120361
      ],
      [
        0.30599114298820496,
        -0.005555853713303804,
        -0.07672743499279022,
        -0.4793427586555481,
        0.0044898828491568565,
        0.20024994015693665,
        0.16776514053344727,
        -0.03988966345787048,
        -0.13290272653102875,
        -0.2599039077758789,
        0.537200391292572,
        -0.11787073314189911,
        -0.3266356885433197,
        -0.23988623917102814,
        0.028307070955634117,
        0.029842372983694077,
        -0.1317295879125595
      ],
      [
        0.07162891328334808,
        -0.11247169971466064,
        0.03494727984070778,
        0.26422056555747986,
        0.28873109817504883,
        -0.25192877650260925,
        -0.06533641368150711,
        0.16127318143844604,
        -0.46495959162712097,
        -0.17880339920520782,
        0.4770616590976715,
        0.12174902856349945,
        -0.5345317125320435,
        0.3752167522907257,
        0.17472591996192932,
        -0.21137680113315582,
        0.006971572991460562
      ],
      [
        0.12433337420225143,
        0.2539336681365967,
        -0.005019303876906633,
        0.25765639543533325,
        0.03380342945456505,
        -0.11840539425611496,
        0.04961920157074928,
        0.19875971972942352,
        -0.21711325645446777,
        0.19685395061969757,
        0.31148165464401245,
        0.13362638652324677,
        -0.35264289379119873,
        0.06278596818447113,
        0.05219409987330437,
        -0.27966615557670593,
        0.2249385267496109
      ]
    ],
    "bias": [
      -0.47074180841445923,
      0.43783384561538696,
      -0.023521626368165016,
      0.2264426350593567,
      0.012959975749254227,
      0.34702154994010925,
      -0.35545599460601807,
      -0.27690500020980835,
      -0.28988024592399597,
      0.5594091415405273,
      -0.04818229749798775,
      0.15171927213668823,
      0.26135513186454773,
      0.1614394187927246,
      0.026817072182893753,
      0.31984564661979675,
      0.6190459132194519,
      -0.20043689012527466,
      -0.16066381335258484,
      0.4662303626537323,
      0.10259241610765457,
      -0.08163939416408539,
      -0.38718828558921814,
      0.7546709775924683,
      0.28926169872283936,
      0.6456824541091919,
      0.3480491638183594,
      0.37759554386138916,
      0.33104386925697327,
      -0.15575392544269562,
      0.0577872209250927,
      -0.23894423246383667,
      -0.14807003736495972,
      -0.07680471241474152,
      -0.24463237822055817,
      0.13514995574951172,
      0.39354509115219116,
      0.4057091772556305,
      0.336894154548645,
      -0.2904375493526459,
      0.0625230148434639,
      -0.10328061133623123,
      -0.11873903125524521,
      0.43941667675971985,
      0.12880943715572357,
      -0.7849307656288147,
      0.3299711346626282,
      -0.23100170493125916,
      0.013252892531454563,
      0.48708269000053406,
      -0.1515057235956192,
      -0.8477905988693237,
      -0.41972440481185913,
      0.18077057600021362,
      0.14547759294509888,
      0.13695408403873444,
      0.20989172160625458,
      -0.19243881106376648,
      0.5624266266822815,
      -0.20792923867702484,
      -0.07064270228147507,
      0.2543042004108429,
      0.5876718759536743,
      0.64104163646698
    ],
    "input_dim": 17,
    "output_dim": 64
  },
  "layer_1": {
    "weight": [
      [
        0.03806082159280777,
        0.16762372851371765,
        0.2498583346605301,
        0.3501845896244049,
        0.23259097337722778,
        -0.028001349419355392,
        0.1417645364999771,
        0.2113000452518463,
        0.1966942399740219,
        -0.16872774064540863,
        0.3240823447704315,
        0.16911037266254425,
        0.09030041843652725,
        0.09281804412603378,
        0.09938143938779831,
        -0.1000702753663063,
        0.1955959051847458,
        0.050234511494636536,
        0.1189793273806572,
        -0.023718051612377167,
        0.13879522681236267,
        0.14845742285251617,
        0.15342211723327637,
        0.13301528990268707,
        0.3616637587547302,
        0.11052632331848145,
        -0.14961053431034088,
        0.21214652061462402,
        0.1350644826889038,
        -0.04746197164058685,
        0.1108739823102951,
        -0.20283269882202148,
        -0.058802083134651184,
        0.0607844702899456,
        0.3786148726940155,
        -0.16092009842395782,
        0.023131942376494408,
        0.3291544020175934,
        0.19757013022899628,
        -0.1486414521932602,
        0.06754686683416367,
        0.16206102073192596,
        0.1853725016117096,
        0.25315824151039124,
        -0.022141410037875175,
        -0.014825546182692051,
        -0.05813018977642059,
        -0.0681508406996727,
        0.006637068931013346,
        0.2076883763074875,
        0.1499234139919281,
        -0.12018008530139923,
        -0.13455383479595184,
        0.1355716586112976,
        0.0887814462184906,
        0.012009774334728718,
        0.2326529175043106,
        0.13990657031536102,
        0.22533611953258514,
        -0.2753477990627289,
        -0.006055098492652178,
        0.06468817591667175,
        0.19362904131412506,
        0.22982549667358398
      ],
      [
        0.9289321303367615,
        -0.1339993178844452,
        -0.2393820583820343,
        -0.21937017142772675,
        0.07422027736902237,
        0.07914620637893677,
        -0.2576645612716675,
        0.027864817529916763,
        0.041413117200136185,
        -0.18557314574718475,
        -0.032676320523023605,
        -0.06628607213497162,
        -0.07137776911258698,
        0.09910867363214493,
        0.032081231474876404,
        -0.03601780906319618,
        0.21179614961147308,
        -0.09643733501434326,
        -0.039460841566324234,
        -0.011382561177015305,
        0.00711454451084137,
        0.054859764873981476,
        -0.06298532336950302,
        -0.2402009665966034,
        -0.3584583103656769,
        -0.14836569130420685,
        -0.4300377666950226,
        0.07245898991823196,
        -0.008651060052216053,
        0.6419861912727356,
        0.051399800926446915,
        0.26065853238105774,
        0.45237380266189575,
        0.4147317111492157,
        0.33178696036338806,
        0.021343925967812538,
        -0.007717397529631853,
        0.07219905406236649,
        -0.4463983178138733,
        0.16476882994174957,
        0.35141295194625854,
        0.22475017607212067,
        0.037371378391981125,
        0.06589554250240326,
        0.21206693351268768,
        0.2691822946071625,
        -0.12057915329933167,
        0.08541347086429596,
        0.5020439624786377,
        -0.06720687448978424,
        0.1279396116733551,
        1.0502071380615234,
        -0.041269827634096146,
        0.1885271966457367,
        0.19207338988780975,
        0.03120768815279007,
        -0.07771940529346466,
        -0.1638658195734024,
        -0.003432402154430747,
        0.17378689348697662,
        -0.12630940973758698,
        -0.12429363280534744,
        -0.819592297077179,
        -0.3320302963256836
      ],
      [
        -0.1188388392329216,
        0.05232458934187889,
        0.4184240400791168,
        0.3115321695804596,
        0.15163357555866241,
        0.2237769216299057,
        0.005088458303362131,
        0.3746781349182129,
        0.32572054862976074,
        -0.07792842388153076,
        0.19353188574314117,
        0.2577563524246216,
        0.10999950766563416,
        -0.17554861307144165,
        0.028309497982263565,
        -0.14171598851680756,
        0.004150683991611004,
        0.04049594700336456,
        0.15177978575229645,
        -0.08915378898382187,
        0.07509507983922958,
        -0.21487197279930115,
        0.1731138974428177,
        0.13961736857891083,
        0.10433369129896164,
        0.1864376962184906,
        -0.15467123687267303,
        0.31436780095100403,
        0.11629649251699448,
        -0.047000590711832047,
        0.15433773398399353,
        -0.05044585093855858,
        0.030888184905052185,
        0.0539960078895092,
        0.22983713448047638,
        -0.03597649186849594,
        0.12094704806804657,
        0.12458208203315735,
        0.31318792700767517,
        0.008349140174686909,
        0.129917174577713,
        0.04669460281729698,
        0.11562751978635788,
        0.23124460875988007,
        0.1965283453464508,
        -0.11386439949274063,
        0.25240781903266907,
        -0.06145228445529938,
        0.053089600056409836,
        0.06462017446756363,
        0.16636812686920166,
        -0.05369587615132332,
        -0.12916001677513123,
        -0.12706828117370605,
        0.16283859312534332,
        -0.04364113509654999,
        0.020998965948820114,
        0.17221973836421967,
        0.07819448411464691,
        -0.03022916428744793,
        0.09228623658418655,
        0.07618767023086548,
        0.05874514579772949,
        0.3786764144897461
      ],
      [
        -0.31679847836494446,
        0.315820574760437,
        0.18050339818000793,
        0.2424047291278839,
        0.061520423740148544,
        0.17918318510055542,
        0.40965867042541504,
        -0.04759856313467026,
        0.24201008677482605,
        0.04181356355547905,
        0.3602055013179779,
        0.052659377455711365,
        0.2552742063999176,
        -0.07906254380941391,
        0.1106063574552536,
        0.11885188519954681,
        -0.2006494104862213,
        -0.1117541566491127,
        -0.09162703156471252,
        0.07984133064746857,
        0.009175591170787811,
        -0.10684259980916977,
        0.18965670466423035,
        0.19998493790626526,
        0.23893234133720398,
        0.26756006479263306,
        0.2571910321712494,
        0.04186038300395012,
        0.011770554818212986,
        -0.05169408395886421,
        0.12704582512378693,
        -0.18469972908496857,
        0.08019831776618958,
        0.07731302827596664,
        0.053304534405469894,
        0.08468791097402573,
        0.08558665215969086,
        0.048385825008153915,
        -0.04859534278512001,
        -0.02817237749695778,
        0.08654632419347763,
        -0.027926335111260414,
        -0.16477346420288086,
        0.07329634577035904,
        0.29875221848487854,
        0.023281468078494072,
        0.08373383432626724,
        0.1926925927400589,
        -0.06737155467271805,
        0.03373401239514351,
        -0.018393252044916153,
        -0.4877254068851471,
        -0.040898989886045456,
        0.0891595259308815,
        -0.12652891874313354,
        -0.20542801916599274,
        0.0969044417142868,
        0.05101925507187843,
        0.15310248732566833,
        0.0271401796489954,
        0.09352988004684448,
        0.20451222360134125,
        0.2163117229938507,
        0.20218966901302338
      ],
      [
        0.39437416195869446,
        -0.010817932896316051,
        0.27160701155662537,
        -0.016381455585360527,
        0.08245807141065598,
        0.28436973690986633,
        0.15013408660888672,
        0.3660840690135956,
        0.12590351700782776,
        -0.06372971087694168,
        0.2200549989938736,
        0.168974369764328,
        0.05976056307554245,
        -0.04966256022453308,
        -0.10164814442396164,
        -0.11314897239208221,
        0.36485767364501953,
        0.11447788774967194,
        0.21963579952716827,
        -0.15368926525115967,
        0.017150748521089554,
        0.01686103083193302,
        0.09850112348794937,
        -0.025357834994792938,
        -0.0438765250146389,
        0.09011340141296387,
        -0.21376721560955048,
        0.2444465011358261,
        0.03539217263460159,
        0.12507230043411255,
        0.16807040572166443,
        0.19961968064308167,
        0.09525880962610245,
        0.2565346658229828,
        0.09704307466745377,
        -0.10376841574907303,
        0.09169096499681473,
        0.041430484503507614,
        0.15250404179096222,
        0.030688636004924774,
        0.21348997950553894,
        0.17098809778690338,
        0.10634994506835938,
        -0.10487785190343857,
        0.3674711585044861,
        0.2363899052143097,
        0.06914094090461731,
        0.19410914182662964,
        0.15981611609458923,
        -0.02842181921005249,
        0.2938385605812073,
        0.6142627596855164,
        0.054637789726257324,
        0.04391651228070259,
        -0.04563720151782036,
        0.08291878551244736,
        0.23280414938926697,
        0.16484232246875763,
        -0.0020224861800670624,
        0.154053196310997,
        0.022726792842149734,
        0.15282560884952545,
        -0.021524572744965553,
        -0.07935718446969986
      ],
      [
        0.06536658108234406,
        0.11690939217805862,
        0.3008774518966675,
        0.08802337199449539,
        0.2944676876068115,
        -0.0026102294214069843,
        0.047153204679489136,
        0.2525177299976349,
        0.19091372191905975,
        0.0759393572807312,
        0.02497110702097416,
        0.230187326669693,
        0.15442433953285217,
        -0.12016864866018295,
        0.006623490713536739,
        0.3021795153617859,
        0.12215734273195267,
        -0.09222390502691269,
        0.1159658282995224,
        -0.0724189355969429,
        0.007069015875458717,
        -0.31402871012687683,
        0.03751695528626442,
        0.26981687545776367,
        -0.04662492126226425,
        0.10764248669147491,
        -0.15694722533226013,
        0.06770619004964828,
        -0.25463783740997314,
        0.09568596631288528,
        -0.013071777299046516,
        0.1319313943386078,
        0.12519937753677368,
        0.03919731080532074,
        -0.03492598235607147,
        0.17714156210422516,
        0.13426242768764496,
        0.062131818383932114,
        0.008279976435005665,
        0.006745349615812302,
        0.0794147327542305,
        0.02587738074362278,
        0.06928428262472153,
        0.2701170742511749,
        0.17473016679286957,
        -0.35927560925483704,
        0.2782667875289917,
        0.0820218026638031,
        -0.09625400602817535,
        0.13421714305877686,
        0.10006997734308243,
        0.0056437295861542225,
        -0.0644349679350853,
        -0.016674697399139404,
        0.04740336164832115,
        0.11506878584623337,
        0.011626344174146652,
        0.19255506992340088,
        0.1518801748752594,
        0.1580113172531128,
        0.22089792788028717,
        0.06900270283222198,
        -0.0038287793286144733,
        0.16949830949306488
      ],
      [
        -0.04496540129184723,
        0.15354737639427185,
        0.16549694538116455,
        0.06298832595348358,
        0.08742716163396835,
        0.28919851779937744,
        0.02041708119213581,
        0.2098662406206131,
        0.23231162130832672,
        -0.09287486225366592,
        0.3311680257320404,
        0.1416756510734558,
        0.18467363715171814,
        -0.13154946267604828,
        -0.039991345256567,
        0.26130467653274536,
        0.134956493973732,
        -0.15172098577022552,
        0.15425264835357666,
        -0.14737725257873535,
        -0.04741866886615753,
        -0.33501893281936646,
        0.04483766108751297,
        0.13852033019065857,
        0.11716512590646744,
        0.2860282361507416,
        0.016685543581843376,
        0.045488886535167694,
        -0.3296799063682556,
        0.025488048791885376,
        0.0851452425122261,
        0.1883019506931305,
        0.08699825406074524,
        0.18838949501514435,
        -0.07603514939546585,
        0.1879071742296219,
        -0.05039176344871521,
        0.18269860744476318,
        -0.04191548004746437,
        0.08143318444490433,
        0.22837819159030914,
        0.07380574196577072,
        0.17455871403217316,
        0.12710584700107574,
        0.4512077569961548,
        -0.3198902904987335,
        0.20110119879245758,
        0.08823017030954361,
        -0.0007115878397598863,
        0.08618586510419846,
        0.2528313994407654,
        -0.09234336018562317,
        0.0338168665766716,
        -0.13651053607463837,
        -0.04099263250827789,
        0.14843687415122986,
        0.04340149834752083,
        0.15897127985954285,
        0.057280901819467545,
        0.05756649374961853,
        0.13740846514701843,
        0.2347540557384491,
        0.132945254445076,
        0.11077596247196198
      ],
      [
        -0.10551895946264267,
        0.1813783049583435,
        0.011512700468301773,
        -0.21900686621665955,
        -0.04500693082809448,
        0.21295425295829773,
        0.17849670350551605,
        -0.042165957391262054,
        0.045941878110170364,
        0.26178497076034546,
        0.161380335688591,
        -0.0806475505232811,
        -0.04599025100469589,
        0.13697116076946259,
        0.08814216405153275,
        0.18069405853748322,
        0.09171867370605469,
        0.20591269433498383,
        0.168592631816864,
        0.1950521171092987,
        0.06099344789981842,
        0.20232722163200378,
        0.029152560979127884,
        0.09263318032026291,
        -0.04635683074593544,
        0.09238221496343613,
        0.24273324012756348,
        0.024745585396885872,
        0.25580325722694397,
        -0.05670444294810295,
        0.2830897569656372,
        0.1252867430448532,
        -0.028984777629375458,
        -0.038288116455078125,
        0.010323972441256046,
        0.1931827962398529,
        0.10306858271360397,
        -0.09869052469730377,
        0.06305980682373047,
        0.23173174262046814,
        0.07899685949087143,
        0.17641781270503998,
        0.09790676087141037,
        0.0205338504165411,
        -0.08338940888643265,
        0.4757145345211029,
        0.22267459332942963,
        0.1499168574810028,
        -0.010883807204663754,
        0.12629330158233643,
        -0.0991382822394371,
        -0.4375618100166321,
        0.11864333599805832,
        0.32610684633255005,
        -0.020896730944514275,
        -0.10747824609279633,
        0.09840302914381027,
        -0.08349590748548508,
        -0.0881582498550415,
        0.4405653178691864,
        0.08626606315374374,
        0.04531647637486458,
        0.15673108398914337,
        0.034468431025743484
      ],
      [
        -0.4729938209056854,
        0.07219379395246506,
        0.048870641738176346,
        0.0982428714632988,
        0.1138845905661583,
        -0.17911402881145477,
        0.17494989931583405,
        -0.0074506173841655254,
        -0.051926661282777786,
        0.3226894736289978,
        0.08556918799877167,
        0.021353326737880707,
        0.06872157752513885,
        0.14349205791950226,
        0.0637114942073822,
        0.16151289641857147,
        -0.3136522173881531,
        0.05912552773952484,
        0.2062658965587616,
        0.02063874341547489,
        0.03941196948289871,
        0.14053447544574738,
        0.20310525596141815,
        0.062143731862306595,
        0.10767000913619995,
        0.10569925606250763,
        0.09889570623636246,
        0.1287226676940918,
        0.08277230709791183,
        -0.338716983795166,
        0.030362695455551147,
        0.14953020215034485,
        -0.13105067610740662,
        -0.04042333737015724,
        -0.14746159315109253,
        0.20742443203926086,
        0.196232870221138,
        -0.06342434138059616,
        0.06329791247844696,
        -0.02941753715276718,
        -0.10879972577095032,
        -0.08525741100311279,
        -0.09512200951576233,
        0.14703480899333954,
        -0.006832994055002928,
        -0.04859934002161026,
        0.2075953483581543,
        0.13633371889591217,
        -0.16319899260997772,
        0.013293491676449776,
        -0.14342202246189117,
        -0.6532502770423889,
        0.07169756293296814,
        0.06348124146461487,
        0.28148481249809265,
        0.1946278214454651,
        -0.15620051324367523,
        0.13052445650100708,
        0.3572433888912201,
        0.09194618463516235,
        -0.0715535432100296,
        0.23238614201545715,
        0.3077143728733063,
        0.1482183039188385
      ],
      [
        0.05075370520353317,
        0.050685688853263855,
        0.1447419971227646,
        0.24159276485443115,
        0.17424282431602478,
        0.08344167470932007,
        0.1670917421579361,
        0.07746115326881409,
        0.045093197375535965,
        0.18817898631095886,
        -0.0006178938783705235,
        0.10361669957637787,
        0.14915621280670166,
        0.1882750391960144,
        0.2023051679134369,
        0.2325349599123001,
        0.13050810992717743,
        -0.0926000326871872,
        0.10925255715847015,
        0.1020292192697525,
        -0.00550476461648941,
        -0.11779540032148361,
        -0.03939925879240036,
        0.29732587933540344,
        0.16139742732048035,
        0.20932653546333313,
        0.22111400961875916,
        -0.06994137167930603,
        -0.12137465178966522,
        0.20203359425067902,
        0.14385274052619934,
        0.16617722809314728,
        0.1450488269329071,
        0.05512139946222305,
        -0.1787746548652649,
        0.12810774147510529,
        0.11332431435585022,
        0.3668372631072998,
        -0.1788943111896515,
        -0.048835400491952896,
        0.04379737749695778,
        0.020789043977856636,
        0.12994419038295746,
        0.23720698058605194,
        0.21162199974060059,
        -0.35901421308517456,
        0.05949178338050842,
        0.2878333330154419,
        0.07564036548137665,
        0.12080346792936325,
        0.025342978537082672,
        -0.029758745804429054,
        -0.10097158700227737,
        -0.17600701749324799,
        0.07264907658100128,
        0.15081451833248138,
        -0.0041457233019173145,
        0.29942137002944946,
        0.013034133240580559,
        -0.009394657798111439,
        0.058691103011369705,
        0.07212275266647339,
        0.16928669810295105,
        0.07245606184005737
      ],
      [
        0.14976587891578674,
        0.09889014810323715,
        0.08411064743995667,
        0.1676456332206726,
        0.26971331238746643,
        0.10415137559175491,
        0.0006518102018162608,
        0.026956383138895035,
        0.2058328092098236,
        -0.01706537790596485,
        0.06875214725732803,
        0.1435619294643402,
        0.0901949405670166,
        0.009829615242779255,
        -0.024857185781002045,
        0.1877933293581009,
        0.12042653560638428,
        -0.04040420800447464,
        0.018102630972862244,
        -0.04811980575323105,
        -0.1016826406121254,
        -0.22570116817951202,
        0.19005343317985535,
        0.17198863625526428,
        0.1398467719554901,
        0.23135937750339508,
        0.15534214675426483,
        0.04229561984539032,
        -0.12901854515075684,
        0.0880822017788887,
        0.15997228026390076,
        0.14009185135364532,
        0.25213631987571716,
        0.08158780634403229,
        -0.09725866466760635,
        0.2673640549182892,
        0.11609581857919693,
        0.40930110216140747,
        -0.04330036789178848,
        0.09606683999300003,
        -0.06774359941482544,
        -0.09945113956928253,
        -0.02765120193362236,
        0.2311980426311493,
        0.2617160379886627,
        -0.46856436133384705,
        0.0792645737528801,
        0.35632190108299255,
        0.0013184907147660851,
        0.1325765997171402,
        0.23005686700344086,
        0.06477926671504974,
        -0.28698843717575073,
        -0.13431347906589508,
        -0.07408932596445084,
        0.3030850291252136,
        -0.054378263652324677,
        0.2741352915763855,
        0.030382920056581497,
        -0.10756522417068481,
        0.1320667564868927,
        0.2552754878997803,
        0.0716545358300209,
        0.12029781937599182
      ],
      [
        0.006163541693240404,
        -0.07601248472929001,
        0.18368901312351227,
        -0.0865873172879219,
        0.11333537846803665,
        0.03172857314348221,
        0.19641408324241638,
        0.25734415650367737,
        0.1839369833469391,
        -0.032227326184511185,
        0.17935769259929657,
        0.11241208761930466,
        0.22831043601036072,
        -0.056753501296043396,
        -0.015355127863585949,
        -0.06802584230899811,
        -0.0024158742744475603,
        0.14543813467025757,
        0.10144750028848648,
        0.0786791443824768,
        0.14806823432445526,
        0.3584637939929962,
        0.04450325295329094,
        0.06590457260608673,
        0.1057322770357132,
        -0.02755776420235634,
        -0.18950700759887695,
        0.25855180621147156,
        0.2256307601928711,
        -0.12425782531499863,
        -0.027001390233635902,
        0.1664336919784546,
        -0.036870092153549194,
        0.14935795962810516,
        0.19904391467571259,
        -0.05223764851689339,
        0.16040022671222687,
        -0.007198216859251261,
        0.1770763099193573,
        0.029789205640554428,
        0.1918524205684662,
        0.039663802832365036,
        0.2767801284790039,
        0.0836658850312233,
        -0.16711996495723724,
        0.2274206280708313,
        0.15827783942222595,
        -0.2578318417072296,
        -0.0457589291036129,
        0.10602632164955139,
        0.060456886887550354,
        -0.5107431411743164,
        0.30822986364364624,
        0.19887518882751465,
        0.20921781659126282,
        -0.07161072641611099,
        -0.14113418757915497,
        0.1570027768611908,
        0.05774430185556412,
        0.17967647314071655,
        0.02058633789420128,
        0.18843205273151398,
        0.21799567341804504,
        -0.12477437406778336
      ],
      [
        0.1504385769367218,
        0.17329613864421844,
        -0.036923810839653015,
        0.05471203476190567,
        0.002046470530331135,
        0.12580545246601105,
        0.6245436072349548,
        -0.05645723640918732,
        0.030184825882315636,
        -0.16430942714214325,
        0.08894061297178268,
        0.0912005752325058,
        0.23645810782909393,
        -0.3290735185146332,
        -0.06300000101327896,
        -0.011854542419314384,
        -0.6245208382606506,
        0.05844757705926895,
        0.27805060148239136,
        -0.158182293176651,
        0.07117636501789093,
        0.002782572526484728,
        0.3876684606075287,
        -0.3168147802352905,
        -0.026658713817596436,
        -0.2525896430015564,
        0.1107441708445549,
        -0.018463945016264915,
        -0.20907001197338104,
        -0.6114394068717957,
        0.0881810411810875,
        -0.11124571412801743,
        0.047642938792705536,
        0.22952835261821747,
        0.04981871321797371,
        -0.11001712083816528,
        -0.0006618399638682604,
        -0.2509682774543762,
        -0.28992676734924316,
        -0.08636417239904404,
        0.2681734561920166,
        0.2875579297542572,
        -0.20165976881980896,
        0.011136263608932495,
        -0.07286759465932846,
        0.2057238519191742,
        -0.08477000892162323,
        0.20793600380420685,
        -0.028226250782608986,
        -0.21515150368213654,
        0.19026999175548553,
        -0.39256834983825684,
        0.3108694553375244,
        -0.2290881723165512,
        -0.22586563229560852,
        0.20205272734165192,
        -0.24883276224136353,
        0.05261370539665222,
        0.18684765696525574,
        0.03939841315150261,
        0.006726368796080351,
        0.1339535415172577,
        0.07195571810007095,
        0.01583349145948887
      ],
      [
        0.6354622840881348,
        -0.10359779745340347,
        -0.08198082447052002,
        0.28046873211860657,
        0.2991540729999542,
        0.14166609942913055,
        -0.09563448280096054,
        0.1668727546930313,
        -0.04884439706802368,
        0.20407100021839142,
        -0.3190915584564209,
        0.11743026971817017,
        -0.14142537117004395,
        0.19481992721557617,
        0.08994688093662262,
        0.11998775601387024,
        0.3636893630027771,
        0.18984177708625793,
        0.09582167863845825,
        0.023012030869722366,
        0.08232875168323517,
        0.1106756329536438,
        0.028807517141103745,
        0.2006322592496872,
        -0.004662254359573126,
        0.23881611227989197,
        0.24063780903816223,
        0.03320559486746788,
        0.07848487049341202,
        0.5048404335975647,
        0.059575892984867096,
        0.307106077671051,
        -0.05177551507949829,
        -0.028498897328972816,
        0.05158791318535805,
        0.12998293340206146,
        -0.007543016225099564,
        0.19114090502262115,
        0.10176698118448257,
        0.05550669506192207,
        0.18150444328784943,
        0.11135546118021011,
        0.020094117149710655,
        0.10366546362638474,
        0.060613274574279785,
        -0.11284401267766953,
        0.12343617528676987,
        0.252108097076416,
        0.2618902623653412,
        0.09707870334386826,
        0.060565780848264694,
        0.8672793507575989,
        0.04838617518544197,
        0.04736437648534775,
        0.10354966670274734,
        0.39403587579727173,
        0.2617419362068176,
        0.20420584082603455,
        0.07212958484888077,
        0.1311967968940735,
        0.02180994115769863,
        -0.007701932918280363,
        -0.10692035406827927,
        0.13076429069042206
      ],
      [
        0.07845272868871689,
        0.027496568858623505,
        0.0739264041185379,
        0.4060131013393402,
        0.24971039593219757,
        -0.025251274928450584,
        0.08220493793487549,
        0.16868090629577637,
        0.09508361667394638,
        0.0281126219779253,
        -0.05298693850636482,
        0.16872821748256683,
        0.14833931624889374,
        0.12082981318235397,
        0.1499747484922409,
        -0.1540166139602661,
        -0.08032239973545074,
        0.19349689781665802,
        0.2753463685512543,
        0.18290555477142334,
        0.26350849866867065,
        0.3881952166557312,
        0.09960241615772247,
        0.06587988138198853,
        0.14069505035877228,
        0.1873854696750641,
        0.22890810668468475,
        0.2167665809392929,
        0.07144366949796677,
        -0.03576183319091797,
        -0.12970729172229767,
        -0.05058697983622551,
        -0.007533576805144548,
        -0.0933055654168129,
        0.4602433145046234,
        0.0033808904699981213,
        0.09589729458093643,
        0.22341802716255188,
        0.22795440256595612,
        0.06503181904554367,
        0.03331083059310913,
        0.1193607747554779,
        0.3185209333896637,
        0.3246013820171356,
        -0.1756671518087387,
        0.2813117504119873,
        0.0688682571053505,
        -0.18260227143764496,
        -0.0010687452740967274,
        0.09475266933441162,
        0.18757863342761993,
        0.06010392680764198,
        -0.1310257464647293,
        0.23030626773834229,
        0.19435571134090424,
        0.2490842640399933,
        -0.07818200439214706,
        0.016129443421959877,
        0.29576000571250916,
        -0.18035650253295898,
        -0.1383930742740631,
        0.18908917903900146,
        0.1507410705089569,
        0.19192290306091309
      ],
      [
        -0.40626129508018494,
        0.3153749406337738,
        0.019701290875673294,
        0.061221931129693985,
        -0.10577809065580368,
        0.06960833072662354,
        0.2646239697933197,
        -0.2769898474216461,
        -0.059778906404972076,
        0.13257603347301483,
        0.3274320662021637,
        -0.1100490614771843,
        0.07496364414691925,
        0.30115312337875366,
        0.11961390823125839,
        -0.15101607143878937,
        -0.1627810299396515,
        0.02068237215280533,
        -0.09863046556711197,
        0.28562799096107483,
        0.23459875583648682,
        0.25299328565597534,
        0.2905752658843994,
        0.03806357458233833,
        0.35459452867507935,
        0.028720673173666,
        0.12269073724746704,
        0.06588773429393768,
        0.20957016944885254,
        -0.24707862734794617,
        0.06022721156477928,
        -0.145345076918602,
        0.13116826117038727,
        0.05356987565755844,
        0.20161724090576172,
        0.0749717727303505,
        0.014775946736335754,
        -0.08997812122106552,
        0.26936107873916626,
        0.08202974498271942,
        -0.06934195011854172,
        0.07213300466537476,
        0.11880996078252792,
        -0.06814182549715042,
        -0.036019664257764816,
        0.4642826318740845,
        0.030203087255358696,
        -0.005911202635616064,
        -0.050041865557432175,
        -0.008134260773658752,
        -0.13471345603466034,
        -0.8175950646400452,
        0.10043825209140778,
        0.3166596293449402,
        -0.02898259088397026,
        -0.007143080700188875,
        -0.0524103082716465,
        0.021921509876847267,
        0.12882502377033234,
        -0.16374413669109344,
        -0.07579221576452255,
        0.28822553157806396,
        0.23163017630577087,
        0.15397310256958008
      ],
      [
        0.3448041081428528,
        0.005876736715435982,
        0.1613920032978058,
        0.2919604778289795,
        0.1193079799413681,
        0.18877486884593964,
        0.06032397970557213,
        0.34393227100372314,
        0.3328950107097626,
        -0.060928311198949814,
        0.1314874142408371,
        0.1566462367773056,
        0.21283544600009918,
        -0.11786843836307526,
        0.012302863411605358,
        0.06312379240989685,
        0.23518991470336914,
        -0.06275016814470291,
        0.1315244436264038,
        0.012209182605147362,
        0.11704187840223312,
        -0.36146777868270874,
        0.12475211918354034,
        0.09554947912693024,
        0.05490527302026749,
        0.11454097926616669,
        -0.20418395102024078,
        0.042467884719371796,
        0.027535330504179,
        0.21186789870262146,
        0.17428724467754364,
        0.08576127141714096,
        0.18995577096939087,
        0.15276704728603363,
        0.16765852272510529,
        0.12036187946796417,
        0.21246273815631866,
        0.3317786157131195,
        0.08537064492702484,
        0.11603447794914246,
        0.2317095249891281,
        0.1658082902431488,
        0.11599656194448471,
        0.1961396187543869,
        0.3547479510307312,
        -0.18871673941612244,
        -0.17388302087783813,
        0.16038620471954346,
        0.17998290061950684,
        0.04644159972667694,
        0.33977818489074707,
        0.5203103423118591,
        -0.11885199695825577,
        -0.15162307024002075,
        0.0939495787024498,
        -0.0005371571169234812,
        0.16092756390571594,
        0.149239644408226,
        -0.028349196538329124,
        -0.02751280553638935,
        0.04720871523022652,
        0.08121749758720398,
        -0.02170499414205551,
        0.12937702238559723
      ],
      [
        -0.07183942198753357,
        0.004965357948094606,
        -0.15359506011009216,
        -0.14168155193328857,
        -0.31035923957824707,
        0.2341691553592682,
        0.17832031846046448,
        -0.14063294231891632,
        -0.11738420277833939,
        0.11777052283287048,
        0.1282774657011032,
        -0.10267148166894913,
        -0.022370193153619766,
        -0.12207724899053574,
        0.06789551675319672,
        -0.19320809841156006,
        -0.13749416172504425,
        0.3945534825325012,
        -0.06649226695299149,
        -0.05357025936245918,
        0.21468602120876312,
        0.4232684075832367,
        0.13209085166454315,
        -0.28301742672920227,
        -0.11798296123743057,
        -0.2546115517616272,
        0.1541474461555481,
        -0.20692388713359833,
        0.05652536451816559,
        0.19093672931194305,
        0.031144965440034866,
        0.20912738144397736,
        0.06754014641046524,
        0.07755295187234879,
        0.16140876710414886,
        -0.22193408012390137,
        -0.14148497581481934,
        -0.3319500982761383,
        0.02882540598511696,
        0.18098290264606476,
        0.11927922815084457,
        0.5062866806983948,
        0.17099906504154205,
        -0.25643259286880493,
        -0.05935968458652496,
        0.6405079364776611,
        -0.08212778717279434,
        -0.23488333821296692,
        -0.3675905764102936,
        -0.08770930022001266,
        0.005956362001597881,
        -0.3528778851032257,
        0.17870183289051056,
        0.19660057127475739,
        0.13997788727283478,
        0.03527109697461128,
        -0.14618277549743652,
        0.001177146565169096,
        0.09846669435501099,
        0.2911664545536041,
        -0.04653706029057503,
        0.2454594522714615,
        -0.08889561146497726,
        -0.24862153828144073
      ],
      [
        0.5244717001914978,
        0.03269907087087631,
        0.37664157152175903,
        -0.025934157893061638,
        -0.1201581358909607,
        0.23185735940933228,
        0.03498571366071701,
        0.23219262063503265,
        -0.034447651356458664,
        -0.13051122426986694,
        0.14317914843559265,
        0.1665840446949005,
        -0.12683123350143433,
        0.09377427399158478,
        -0.044515155255794525,
        0.13323503732681274,
        -0.26368796825408936,
        0.05823448672890663,
        0.26325589418411255,
        0.0925358459353447,
        -0.32834088802337646,
        0.05267271772027016,
        -0.12801247835159302,
        0.1431048959493637,
        -0.18591314554214478,
        0.1647304892539978,
        0.0454341396689415,
        0.29163503646850586,
        0.13813012838363647,
        0.026579998433589935,
        0.03034818358719349,
        0.30981239676475525,
        0.10889449715614319,
        0.19873292744159698,
        -0.35196420550346375,
        0.19924640655517578,
        0.07897400856018066,
        -0.06459508836269379,
        0.14444150030612946,
        -0.015094310976564884,
        -0.0003943655174225569,
        0.14590008556842804,
        0.2707716226577759,
        -0.038586605340242386,
        0.09424823522567749,
        0.15146306157112122,
        -0.14424283802509308,
        -0.09624005854129791,
        0.08717520534992218,
        0.15163472294807434,
        0.20333203673362732,
        0.581294059753418,
        0.02299719676375389,
        -0.03621963411569595,
        -0.29884982109069824,
        -0.017924239858984947,
        -0.3221612572669983,
        0.01403958909213543,
        0.13386774063110352,
        0.009324779734015465,
        0.2055620551109314,
        -0.014061269350349903,
        -0.030274808406829834,
        0.1857607215642929
      ],
      [
        0.4414438307285309,
        0.16177308559417725,
        -0.1303582340478897,
        -0.03888443857431412,
        -0.13671639561653137,
        -0.016416652128100395,
        0.033283088356256485,
        -0.23867249488830566,
        -0.015417102724313736,
        0.11199738830327988,
        0.015800289809703827,
        0.05741451308131218,
        -0.03282428905367851,
        0.21413682401180267,
        0.09902215749025345,
        0.18211683630943298,
        0.2288549244403839,
        0.22375477850437164,
        0.09622436761856079,
        0.038675643503665924,
        -0.020669344812631607,
        0.3725869953632355,
        -0.029982302337884903,
        0.0168338380753994,
        -0.04318438097834587,
        -0.10226479917764664,
        0.40088674426078796,
        0.017229381948709488,
        0.1516282707452774,
        0.2575320601463318,
        0.009517243131995201,
        0.18252089619636536,
        0.14881950616836548,
        0.04652105271816254,
        0.05434400215744972,
        0.14505892992019653,
        0.28551867604255676,
        -0.20915718376636505,
        0.10721151530742645,
        0.13709647953510284,
        0.00607261760160327,
        0.07305197417736053,
        0.00686520803719759,
        -0.07987555116415024,
        -0.005480277817696333,
        0.5277756452560425,
        0.1018519327044487,
        0.08686525374650955,
        -0.182891383767128,
        0.028902720659971237,
        -0.07745732367038727,
        0.2791989743709564,
        0.16342388093471527,
        0.16416631639003754,
        -0.04132469743490219,
        0.1543668508529663,
        0.018699226900935173,
        0.09843255579471588,
        0.0014543671859428287,
        0.37283629179000854,
        0.006460112519562244,
        0.15598388016223907,
        0.15211032330989838,
        0.11209379136562347
      ],
      [
        -0.3657451570034027,
        0.09217754751443863,
        -0.09168840944766998,
        0.1420961171388626,
        -0.002929392736405134,
        -0.047076184302568436,
        0.23166881501674652,
        -0.05402454733848572,
        0.06958410888910294,
        0.1871071606874466,
        -0.12962834537029266,
        0.0006945653585717082,
        -0.0015188704710453749,
        0.2566573917865753,
        0.014331527054309845,
        0.1403212994337082,
        -0.29564371705055237,
        0.026555802673101425,
        -0.07047004997730255,
        0.2160215973854065,
        0.16481812298297882,
        0.24756194651126862,
        0.1582564115524292,
        0.18664489686489105,
        0.2318706065416336,
        0.005556491203606129,
        0.3203926086425781,
        0.06671643257141113,
        0.22778543829917908,
        -0.20265547931194305,
        0.08881912380456924,
        0.00778774032369256,
        -0.0192552600055933,
        -0.12965244054794312,
        -0.16342276334762573,
        0.18797236680984497,
        0.14853061735630035,
        -0.1829795390367508,
        0.010351709090173244,
        -0.01754513755440712,
        0.03132253140211105,
        0.1604711413383484,
        -0.036344993859529495,
        0.213891863822937,
        0.05976032465696335,
        0.36061549186706543,
        0.05087026581168175,
        0.09390667825937271,
        -0.10245238989591599,
        0.25714775919914246,
        -0.20241431891918182,
        -0.676125168800354,
        0.08685876429080963,
        0.14987623691558838,
        0.13529668748378754,
        0.19538694620132446,
        -0.022092269733548164,
        0.06295987218618393,
        0.08900804817676544,
        -0.07546521723270416,
        -0.03484981879591942,
        0.14781822264194489,
        0.28981852531433105,
        0.2064407914876938
      ],
      [
        0.11215326189994812,
        0.1297764778137207,
        0.28258728981018066,
        0.20020423829555511,
        -0.12321580201387405,
        0.38871026039123535,
        0.24070818722248077,
        0.2805834710597992,
        0.23278890550136566,
        -0.11841502040624619,
        0.2130495309829712,
        0.13122625648975372,
        0.13525182008743286,
        0.0058624036610126495,
        0.03541979566216469,
        -0.012063447386026382,
        0.30670303106307983,
        0.18256719410419464,
        0.10273291170597076,
        0.054929573088884354,
        0.09171728789806366,
        0.2725127637386322,
        0.19230173528194427,
        -0.0018132809782400727,
        0.24231097102165222,
        -0.1254286915063858,
        0.23053590953350067,
        0.09245955944061279,
        0.1117694228887558,
        0.10789533704519272,
        0.23948676884174347,
        0.1273498684167862,
        0.22236154973506927,
        0.003072513034567237,
        0.21492236852645874,
        -0.1546219438314438,
        0.12191659212112427,
        -0.14818747341632843,
        0.3697836101055145,
        0.21037812530994415,
        0.21739499270915985,
        0.09363868832588196,
        0.31572842597961426,
        -0.12523165345191956,
        -0.030397213995456696,
        0.3142807185649872,
        0.0642072856426239,
        -0.040599290281534195,
        0.11361419409513474,
        0.01980442740023136,
        0.11494800448417664,
        0.025730160996317863,
        0.1322411149740219,
        0.29379820823669434,
        0.10752610862255096,
        -0.059772055596113205,
        0.18040071427822113,
        0.0645255446434021,
        0.04439694434404373,
        -0.04279416799545288,
        0.14845898747444153,
        -0.07768457382917404,
        0.1291114091873169,
        0.14171135425567627
      ],
      [
        0.5179348587989807,
        -0.07420839369297028,
        -0.087075375020504,
        -0.053638193756341934,
        0.009702795185148716,
        0.11162741482257843,
        0.028919383883476257,
        0.11328914761543274,
        0.14034046232700348,
        0.04319864884018898,
        0.1263384371995926,
        -0.06590410321950912,
        -0.01053440012037754,
        0.03169038146734238,
        0.17208963632583618,
        0.15833529829978943,
        0.26175805926322937,
        -0.06240173429250717,
        -0.14999955892562866,
        -0.09028300642967224,
        0.11225085705518723,
        -0.3986813426017761,
        0.1141531690955162,
        -0.21226021647453308,
        -0.2159833312034607,
        -0.20262064039707184,
        -0.13113154470920563,
        -0.11187907308340073,
        -0.029962176457047462,
        0.08839468657970428,
        0.2150019258260727,
        0.2074703872203827,
        0.18572871387004852,
        0.20677372813224792,
        0.09480678290128708,
        0.16209137439727783,
        0.41620516777038574,
        -0.024755410850048065,
        -0.4506687521934509,
        -0.011804438196122646,
        0.11214637756347656,
        -0.13121457397937775,
        0.03402079641819,
        -0.334358811378479,
        0.13329140841960907,
        0.20056317746639252,
        0.06718186289072037,
        0.16853073239326477,
        0.3327690064907074,
        0.11566907167434692,
        -0.03355950117111206,
        0.7873316407203674,
        0.1844564825296402,
        0.04093295708298683,
        -0.10199061781167984,
        -0.19693107903003693,
        0.06425925344228745,
        0.278600811958313,
        0.14724260568618774,
        0.20651888847351074,
        0.31015780568122864,
        0.042438335716724396,
        -0.3643885850906372,
        -0.18189647793769836
      ],
      [
        -0.14553149044513702,
        -0.1297737956047058,
        -0.1115599051117897,
        -0.12731941044330597,
        -0.02297171577811241,
        -0.3700944781303406,
        -0.5823155641555786,
        -0.06764160841703415,
        0.044909391552209854,
        0.18069304525852203,
        0.024714499711990356,
        0.16958163678646088,
        -0.24053069949150085,
        0.020092032849788666,
        -0.03221502527594566,
        0.1532360315322876,
        -0.24558290839195251,
        0.026019996032118797,
        0.04204333946108818,
        0.06030169501900673,
        0.03738623857498169,
        0.017759520560503006,
        -1.1133445501327515,
        0.21475785970687866,
        0.027100328356027603,
        0.10503830760717392,
        -0.07894017547369003,
        0.2087995409965515,
        0.037242889404296875,
        -0.09727270156145096,
        -0.17336295545101166,
        0.203897163271904,
        0.44042426347732544,
        0.2634263336658478,
        -0.2574599087238312,
        0.3423762023448944,
        -0.09851311892271042,
        0.06297429651021957,
        0.10978854447603226,
        0.24380318820476532,
        -0.10922402143478394,
        0.034206632524728775,
        0.08182427287101746,
        -0.0552884042263031,
        0.3181767761707306,
        -0.13783206045627594,
        0.05381683260202408,
        -0.053365763276815414,
        0.4794980585575104,
        0.1721743941307068,
        -0.2814069986343384,
        0.23243024945259094,
        -0.10069473832845688,
        0.18857789039611816,
        -0.09867933392524719,
        -0.13590052723884583,
        0.08648010343313217,
        -0.2785811722278595,
        0.10723736882209778,
        -0.25067684054374695,
        -0.26479384303092957,
        -0.3378807604312897,
        -0.2656925916671753,
        -0.228379487991333
      ],
      [
        0.24084049463272095,
        0.2744625210762024,
        0.15910159051418304,
        0.059005215764045715,
        0.41605764627456665,
        -0.14552927017211914,
        0.35599982738494873,
        0.332215279340744,
        0.23317188024520874,
        -0.08223256468772888,
        -0.02339000441133976,
        0.26975399255752563,
        0.13472281396389008,
        -0.07868629693984985,
        -0.2554168701171875,
        -0.1475161910057068,
        0.016850890591740608,
        0.0783570185303688,
        0.22084826231002808,
        -0.20584321022033691,
        0.1542443186044693,
        0.4243446886539459,
        -0.40407004952430725,
        -0.002420814475044608,
        -0.009683274663984776,
        0.10967576503753662,
        -0.16622795164585114,
        0.16088931262493134,
        0.007953879423439503,
        0.2040492296218872,
        -0.33872735500335693,
        0.1152733713388443,
        -0.37233462929725647,
        0.20655445754528046,
        0.27353253960609436,
        -0.053879741579294205,
        0.30074483156204224,
        -0.02480296976864338,
        0.40351948142051697,
        -0.11361724883317947,
        0.19793957471847534,
        -0.1940290331840515,
        0.0993715450167656,
        0.24915270507335663,
        -0.17200663685798645,
        0.2546629309654236,
        0.23746228218078613,
        -0.37677091360092163,
        0.2384156435728073,
        0.13254660367965698,
        0.18808582425117493,
        0.37226951122283936,
        0.028161918744444847,
        -0.07264170050621033,
        0.27479109168052673,
        0.2812744379043579,
        -0.01770748570561409,
        -0.05092788115143776,
        0.32177460193634033,
        -0.3067034184932709,
        0.0346161425113678,
        0.13963697850704193,
        0.14726677536964417,
        0.04013606533408165
      ],
      [
        -0.24070733785629272,
        0.15909399092197418,
        0.1392754316329956,
        0.3264603912830353,
        0.057851642370224,
        0.08600697666406631,
        0.09353745728731155,
        0.030491875484585762,
        0.08716320991516113,
        0.13443922996520996,
        0.1604144275188446,
        0.02288924716413021,
        0.19552071392536163,
        0.09164439141750336,
        0.12922674417495728,
        0.11351756751537323,
        -0.28955382108688354,
        0.0357050821185112,
        -0.2114027440547943,
        0.17417411506175995,
        0.005933931563049555,
        -0.05711960420012474,
        0.2864130735397339,
        0.3038828670978546,
        0.34078869223594666,
        0.2922590970993042,
        0.17590606212615967,
        0.10547681897878647,
        -0.015451347455382347,
        -0.11694278568029404,
        0.0012012965744361281,
        -0.15913335978984833,
        0.060073867440223694,
        0.013046733103692532,
        0.09124252200126648,
        0.3334731161594391,
        0.059271104633808136,
        0.34624823927879333,
        -0.07241843640804291,
        -0.007682698778808117,
        -0.18760371208190918,
        -0.051620543003082275,
        0.01519421860575676,
        0.1500195860862732,
        0.2805471420288086,
        -0.3893679678440094,
        0.15116648375988007,
        0.22540031373500824,
        0.04141232743859291,
        0.06624609977006912,
        0.013080577366054058,
        -0.4016435742378235,
        -0.11381351202726364,
        -0.059797246009111404,
        -0.06802932918071747,
        0.05428795889019966,
        -0.04392402246594429,
        0.19292429089546204,
        0.22390855848789215,
        -0.18171223998069763,
        -0.1117587685585022,
        0.20747968554496765,
        0.2993010878562927,
        0.1694694310426712
      ],
      [
        -0.42743030190467834,
        0.183177188038826,
        0.15993230044841766,
        0.1358606517314911,
        0.125631183385849,
        -0.07245554029941559,
        0.13562999665737152,
        -0.12423180788755417,
        -0.048390381038188934,
        0.030753914266824722,
        -0.10782861709594727,
        0.14389309287071228,
        0.11164331436157227,
        -0.06620296090841293,
        -0.1066737025976181,
        0.13339602947235107,
        -0.509258508682251,
        0.09392498433589935,
        0.23184169828891754,
        0.16109874844551086,
        0.031996533274650574,
        0.32650312781333923,
        0.13027051091194153,
        0.12143678963184357,
        0.14283661544322968,
        0.011216412298381329,
        0.17962932586669922,
        0.10211645811796188,
        0.06350353360176086,
        -0.3509281575679779,
        -0.17155830562114716,
        0.021100902929902077,
        -0.10382342338562012,
        -0.007289051543921232,
        0.023317111656069756,
        -0.0518733412027359,
        0.06463993340730667,
        -0.170449897646904,
        0.3065132200717926,
        -0.050516411662101746,
        -0.15724071860313416,
        -0.06736961007118225,
        -0.01752219721674919,
        0.2362324297428131,
        -0.09395993500947952,
        0.13383734226226807,
        0.24039077758789062,
        -0.08049680292606354,
        -0.06989908218383789,
        0.1808703988790512,
        0.0315074622631073,
        -0.6756528615951538,
        0.16514045000076294,
        0.1597110480070114,
        0.27539411187171936,
        0.033125802874565125,
        -0.09091750532388687,
        0.08094146847724915,
        0.1493390053510666,
        0.04923386871814728,
        -0.20336586236953735,
        0.19341501593589783,
        0.39099395275115967,
        0.16897699236869812
      ],
      [
        0.5993443727493286,
        -0.15849217772483826,
        -0.11287403106689453,
        -0.16939294338226318,
        -0.13428540527820587,
        0.1674267202615738,
        -0.363227903842926,
        -0.032425496727228165,
        0.07548204064369202,
        -0.0645172968506813,
        -0.13905839622020721,
        0.02504405938088894,
        0.007599527947604656,
        0.25940459966659546,
        0.020223218947649002,
        -0.05204158276319504,
        0.33842214941978455,
        -0.2892901301383972,
        -0.13840052485466003,
        -0.00577336922287941,
        -0.18058255314826965,
        -0.39401233196258545,
        -0.046945832669734955,
        0.0010870805708691478,
        -0.15855327248573303,
        9.819865954341367e-05,
        -0.3101310729980469,
        0.014325492084026337,
        0.22945338487625122,
        0.4123392105102539,
        0.15325550734996796,
        0.177486851811409,
        0.23642724752426147,
        0.3826986253261566,
        0.03798335790634155,
        -0.09675724059343338,
        -0.06545421481132507,
        0.06507854163646698,
        -0.08364833891391754,
        0.20627419650554657,
        0.2851431369781494,
        -0.26265501976013184,
        0.13406901061534882,
        -0.06312110275030136,
        0.09124958515167236,
        -0.00037555102608166635,
        -0.037870556116104126,
        0.052646901458501816,
        0.2623455822467804,
        0.1505531668663025,
        -0.029940640553832054,
        1.112898349761963,
        0.19534076750278473,
        -0.13524885475635529,
        0.029309676960110664,
        -0.02720607817173004,
        -0.2509651184082031,
        0.15608254075050354,
        -0.04705673083662987,
        0.17535355687141418,
        -0.10883084684610367,
        -0.14284752309322357,
        -0.740705668926239,
        -0.091484434902668
      ],
      [
        -0.26355335116386414,
        0.10144511610269547,
        0.3797183334827423,
        0.10840706527233124,
        0.0878867357969284,
        -0.058535221964120865,
        0.3044047951698303,
        0.15892040729522705,
        0.007247418165206909,
        0.10164976119995117,
        0.11316827684640884,
        0.06450684368610382,
        0.2602420449256897,
        0.004635054152458906,
        -0.0199520755559206,
        0.2030269056558609,
        -0.42094776034355164,
        -0.02641725167632103,
        0.22904643416404724,
        0.15690533816814423,
        -0.06569337099790573,
        -0.02881086990237236,
        0.036053162068128586,
        -0.017514275386929512,
        0.10365428030490875,
        0.018858136609196663,
        0.06352093070745468,
        0.15167087316513062,
        -0.053836993873119354,
        -0.14457470178604126,
        0.07949317991733551,
        -0.0026285918429493904,
        -0.04476207494735718,
        -0.21317219734191895,
        0.026059189811348915,
        0.19345563650131226,
        0.11392109096050262,
        -0.05874842405319214,
        0.02223578840494156,
        -0.23445236682891846,
        -0.05949559435248375,
        0.06149207800626755,
        0.009946683421730995,
        0.10314933955669403,
        0.17141270637512207,
        0.0012597867753356695,
        0.18679437041282654,
        -0.02581508457660675,
        -0.10081244260072708,
        -0.004156522452831268,
        0.06772720813751221,
        -0.5000851154327393,
        0.06569521129131317,
        -0.06009232625365257,
        0.1818939447402954,
        -0.2218698263168335,
        0.09386079013347626,
        0.06371426582336426,
        0.18583181500434875,
        0.0646388828754425,
        0.11603531241416931,
        0.18609705567359924,
        0.03505221754312515,
        0.2615458369255066
      ],
      [
        0.26576879620552063,
        -0.04400349035859108,
        -0.013093997724354267,
        -0.08529016375541687,
        -0.06761733442544937,
        0.18135298788547516,
        0.17867746949195862,
        0.16668401658535004,
        0.06744123995304108,
        0.08319804072380066,
        0.1910378783941269,
        0.13505783677101135,
        -0.024373559281229973,
        0.2588200867176056,
        0.03034212812781334,
        0.003079457674175501,
        0.49440667033195496,
        0.1472676694393158,
        0.10990122705698013,
        0.17120759189128876,
        0.12187681347131729,
        0.2758314311504364,
        -0.017426030710339546,
        -0.06649199873209,
        0.09203101694583893,
        0.06718774884939194,
        -0.2084631472826004,
        0.2405833750963211,
        0.2537476122379303,
        0.434675395488739,
        0.1262509524822235,
        0.2351180464029312,
        0.10931973159313202,
        0.07951018214225769,
        0.3073236644268036,
        0.007413703482598066,
        0.2245672196149826,
        0.07105971872806549,
        0.22201088070869446,
        0.2640565037727356,
        0.2804737985134125,
        0.1316513866186142,
        0.1491953581571579,
        -0.17781104147434235,
        -0.05308922007679939,
        0.3124408423900604,
        -0.21737158298492432,
        -0.08738071471452713,
        -0.02698000706732273,
        0.094330795109272,
        0.19068768620491028,
        0.648165225982666,
        0.29376497864723206,
        0.14801229536533356,
        -0.015961436554789543,
        0.016352562233805656,
        0.2584729492664337,
        0.008570047095417976,
        0.04584652557969093,
        0.28058528900146484,
        0.025304118171334267,
        0.08044233918190002,
        -0.07648172974586487,
        -0.027556411921977997
      ],
      [
        0.19570577144622803,
        -0.08867255598306656,
        0.33926358819007874,
        -0.2980237603187561,
        0.17885684967041016,
        0.058118052780628204,
        0.0735439583659172,
        0.190501406788826,
        0.11013279110193253,
        0.1562436819076538,
        0.19661632180213928,
        0.2273419052362442,
        0.09717698395252228,
        -0.02761669084429741,
        0.05267033353447914,
        0.3860352039337158,
        0.30542391538619995,
        0.16038894653320312,
        0.2639443278312683,
        0.019245775416493416,
        0.007804173976182938,
        0.16800469160079956,
        0.15450072288513184,
        0.18161121010780334,
        -0.11090606451034546,
        -0.017911367118358612,
        0.08737225085496902,
        0.24678878486156464,
        0.18357938528060913,
        0.24267424643039703,
        0.18200096487998962,
        0.481759637594223,
        -0.08209848403930664,
        0.1079571321606636,
        -0.208246648311615,
        0.12388455867767334,
        0.22523510456085205,
        -0.26635536551475525,
        0.2900524437427521,
        0.09916099905967712,
        0.25473207235336304,
        0.11899946630001068,
        0.07257461547851562,
        0.06395035982131958,
        0.15557272732257843,
        0.3372509181499481,
        0.1385439932346344,
        -0.016208581626415253,
        -0.04184386134147644,
        0.07563222944736481,
        0.14237616956233978,
        0.6077067255973816,
        0.25964054465293884,
        0.2326178252696991,
        0.11494623869657516,
        0.01531203929334879,
        0.15196116268634796,
        0.04238389804959297,
        0.07043703645467758,
        0.5022022724151611,
        0.20669010281562805,
        0.06500284373760223,
        0.09309279918670654,
        0.030791446566581726
      ],
      [
        0.6550374627113342,
        -0.18555980920791626,
        -0.28096693754196167,
        -0.07800891995429993,
        0.11789686232805252,
        -0.09051132947206497,
        -0.06462717056274414,
        -0.03248900920152664,
        -0.024223849177360535,
        -0.021218709647655487,
        -0.16417433321475983,
        0.08865205943584442,
        0.027914850041270256,
        0.15294209122657776,
        0.20235425233840942,
        -0.045687541365623474,
        0.3120955228805542,
        0.10360889881849289,
        -0.11886674910783768,
        0.07873974740505219,
        0.045926544815301895,
        -0.04305395483970642,
        -0.12152541428804398,
        0.20085546374320984,
        -0.10116812586784363,
        0.0766773596405983,
        -0.13056246936321259,
        0.08219040185213089,
        0.1402098685503006,
        0.3646667003631592,
        0.0652397871017456,
        0.24837931990623474,
        0.07927009463310242,
        -0.05213232710957527,
        0.022990632802248,
        0.07113521546125412,
        0.15725922584533691,
        0.10849259048700333,
        -0.10597507655620575,
        0.023318864405155182,
        0.06669710576534271,
        0.1917702853679657,
        0.0877312570810318,
        0.04483626037836075,
        -0.09831084311008453,
        0.13944411277770996,
        -0.1721714287996292,
        0.22168976068496704,
        0.22229787707328796,
        0.05253353714942932,
        0.1639450192451477,
        0.8597558736801147,
        -0.023645944893360138,
        0.14391407370567322,
        -0.22305618226528168,
        0.16601644456386566,
        0.1255677193403244,
        0.23722824454307556,
        -0.030618498101830482,
        0.06881400942802429,
        0.12620355188846588,
        -0.09030222147703171,
        -0.054259493947029114,
        -0.00811587180942297
      ],
      [
        0.546345591545105,
        -0.010736629366874695,
        -0.06963687390089035,
        0.25940683484077454,
        0.1653030663728714,
        0.16469645500183105,
        -0.08944912999868393,
        0.146458238363266,
        0.15215922892093658,
        0.011237635277211666,
        -0.06922754645347595,
        0.010290835052728653,
        -0.02381320297718048,
        0.31977900862693787,
        0.18337665498256683,
        -0.08179192990064621,
        0.25668540596961975,
        0.332440048456192,
        0.03448190167546272,
        0.23054270446300507,
        0.07599162310361862,
        0.10386290401220322,
        0.05180861055850983,
        0.1200745701789856,
        0.018189288675785065,
        0.23101142048835754,
        0.3639165461063385,
        -0.0632619559764862,
        0.20508095622062683,
        0.33058395981788635,
        0.13773532211780548,
        0.05154014751315117,
        0.22666588425636292,
        0.0768904983997345,
        0.2559518814086914,
        0.17585042119026184,
        -0.00677915196865797,
        0.24998189508914948,
        0.04610452800989151,
        0.21534158289432526,
        0.02406422421336174,
        0.21349933743476868,
        0.18896856904029846,
        0.026367150247097015,
        0.06936895102262497,
        0.3099428415298462,
        0.05290249362587929,
        0.21820679306983948,
        0.21337385475635529,
        0.0709572434425354,
        0.22190570831298828,
        0.5619381666183472,
        -0.08801086992025375,
        0.1452724039554596,
        0.11185351759195328,
        0.4202338755130768,
        0.13668738305568695,
        0.08688230812549591,
        0.03757486864924431,
        -0.036434516310691833,
        0.1012205258011818,
        -0.08462325483560562,
        -0.15567481517791748,
        0.06871562451124191
      ],
      [
        0.14077895879745483,
        0.16821202635765076,
        0.05745990201830864,
        -0.09497172385454178,
        -0.16994066536426544,
        0.2520292103290558,
        0.01617400348186493,
        -0.16946296393871307,
        -0.07530715316534042,
        0.0917230099439621,
        0.14265292882919312,
        -0.15243463218212128,
        -0.15188716351985931,
        0.043757691979408264,
        -0.02373078092932701,
        -0.08941570669412613,
        -0.16349342465400696,
        0.22884897887706757,
        -0.0626441165804863,
        0.07272806018590927,
        0.2037806361913681,
        0.5055084824562073,
        0.0011083337012678385,
        -0.0650230124592781,
        0.020863518118858337,
        -0.203325554728508,
        0.0007749576470814645,
        0.08414606004953384,
        0.23212780058383942,
        0.18536187708377838,
        0.19878007471561432,
        -0.08472143858671188,
        0.11247234046459198,
        0.11458887159824371,
        0.12291119247674942,
        -0.040641915053129196,
        -0.08237875998020172,
        -0.23847857117652893,
        0.05475793406367302,
        0.32040587067604065,
        0.297355055809021,
        0.3003210723400116,
        -0.041782114654779434,
        -0.01936356909573078,
        0.031348999589681625,
        0.3116626441478729,
        -0.08063243329524994,
        -0.1426059454679489,
        -0.03849305585026741,
        -0.13825005292892456,
        -0.1679721623659134,
        0.39854130148887634,
        0.21788068115711212,
        0.13744865357875824,
        0.036819931119680405,
        -0.08801953494548798,
        0.038069307804107666,
        -0.0177624449133873,
        0.036423489451408386,
        0.1644333004951477,
        0.08752032369375229,
        0.17154332995414734,
        -0.03077593259513378,
        -0.13269633054733276
      ],
      [
        -0.3341582417488098,
        0.13374991714954376,
        0.2166057825088501,
        -0.02457418479025364,
        -0.0076749250292778015,
        0.08337974548339844,
        0.13517828285694122,
        0.14872480928897858,
        -0.007553908973932266,
        0.007176971063017845,
        0.26873013377189636,
        0.17441661655902863,
        0.13695724308490753,
        -0.12879738211631775,
        0.040524911135435104,
        -0.09700456261634827,
        -0.21296916902065277,
        0.043571457266807556,
        0.17639164626598358,
        0.199212908744812,
        0.10965496301651001,
        0.19146542251110077,
        0.276611328125,
        0.15275515615940094,
        0.26603323221206665,
        0.12325523793697357,
        0.12048692256212234,
        0.049819815903902054,
        0.22693482041358948,
        -0.15104170143604279,
        0.04659119248390198,
        0.0645781084895134,
        -0.11284220963716507,
        -0.00048126792535185814,
        0.23274441063404083,
        -0.12274354696273804,
        -0.04497126117348671,
        -0.07988810539245605,
        0.2928169369697571,
